svm_type c_svc
kernel_type rbf
gamma 0.045454545454545456
nr_class 10
total_sv 580
rho -0.54188241876893362 -0.15476994206371983 -0.042562442393404919 0.17412678712501697 0.087941822492846211 -0.092808933246565847 -0.16626134125665942 0.10137628915412988 -0.0010842871747782422 0.42104221054058028 0.51227344427550081 0.65525221947390722 0.60197086100675912 0.47413441260433448 0.4122669403566056 0.60965524249365521 0.54146570424682072 0.11685268223013943 0.32127195284915749 0.2532507680402597 0.06540554820835999 -0.058709753303766078 0.25199965792160339 0.1534138079342072 0.21419399224007657 0.15622163178325491 -0.046772573361301258 -0.1267157063769421 0.14216581481211379 0.042564996213857516 -0.091241368725161726 -0.25817605754117173 -0.3343953126718972 -0.077080358450469261 -0.17871406869392162 -0.17786976251585837 -0.26908772172777273 0.013437752305900953 -0.094926253144527711 -0.075054287804139447 0.18580021431983948 0.093540513567575007 0.25350457349543243 0.16165573141008077 -0.12090070641129871
label 0 1 2 3 4 5 6 7 8 9
nr_sv 56 21 47 57 70 73 63 47 70 76
SV
0.072499287504290993 0.13675082987039483 0.1580019238903545 0.19183130582670282 0.17282593092388968 0.16248601104582286 0.13496748051818 0.19485529853554062 0.240375323910129 1:3 2:6 3:7 4:4 5:4 6:4 7:4 8:4 9:4 10:3 11:5 12:6 13:6 14:9 15:4 16:4 17:3 18:4 19:4 20:11 21:9 
0.018318654956084861 0.031435716438321992 0.03786311430206081 0.046179734879734077 0.042895363748135969 0.032372786977004915 0.032927466401853643 0.035098496569649758 0.086208614022488486 1:3 2:6 3:5 4:4 5:5 6:4 7:5 8:4 9:4 10:3 11:5 12:5 13:6 14:9 15:6 16:4 17:2 18:3 19:3 20:11 21:9 
0.20064699104097836 0.37460709520053181 0.42070172280775198 0.51220116346782851 0.50032352856274942 0.40546343392328743 0.36476698888987147 0.48810913460978472 0.48113152177369073 1:3 2:6 3:5 4:2 5:4 6:4 7:4 8:2 9:2 10:3 11:7 12:5 13:3 14:9 15:4 16:4 17:2 18:4 19:4 20:8 21:9 
0.03207661381197497 0.059607247160742477 0.068596682615100199 0.082484229960927316 0.076628240745374193 0.12398590351916813 0.059164638232495396 0.099406649572603117 0.090658791753237628 1:4 2:4 3:5 4:8 5:6 6:6 7:7 8:6 9:6 10:6 11:7 12:7 13:8 14:8 15:10 16:6 17:4 18:4 19:5 20:10 21:10 22:7 
0.024295655093150941 0.046072479155429502 0.052985203628794407 0.066380760256053328 0.059788274876558488 0.078386992807943451 0.044852393632176593 0.075391077840315235 0.10346188503163053 1:4 2:4 3:4 4:6 5:6 6:6 7:6 8:6 9:6 10:6 11:5 12:3 13:7 14:7 15:10 16:4 17:2 18:2 19:5 20:9 21:9 22:7 
0.11173678055405313 0.2070262905107684 0.23439354660580713 0.28834038451160948 0.26620562994956976 0.22856998993882094 0.20453317412553151 0.26822589075417624 0.24697474058317345 1:4 2:7 3:6 4:6 5:6 6:7 7:6 8:6 9:6 10:6 11:6 12:7 13:7 14:11 15:11 16:6 17:3 18:3 19:3 20:11 21:9 22:9 
0.1222433282782301 0.22620060636794984 0.25534351902233826 0.31388605961419941 0.2912485359807746 0.18493965225642303 0.22263437004735334 0.31497189030052442 0.22799903039004688 1:4 2:5 3:8 4:8 5:6 6:6 7:6 8:6 9:6 10:6 11:8 12:7 13:7 14:10 15:10 16:5 17:3 18:6 19:6 20:11 21:9 22:9 
0.0077828094676871918 0 0.014238384550588873 0.01600758580266258 0.0030099628652879942 0 0.0050780720954305318 0.0039116053502008226 0 1:3 2:5 3:4 4:3 5:2 6:3 7:4 8:2 9:2 10:3 11:5 12:4 13:3 14:9 15:4 16:4 17:2 18:2 19:2 20:5 21:9 
0.049292337566315611 0.091102798241490715 0.10248736718700585 0.12850695586591906 0.11881077296341513 0.13770209817520362 0.088263481815003514 0.14811468524554394 0.18370009894441239 1:4 2:4 3:4 4:6 5:7 6:6 7:7 8:6 9:6 10:6 11:5 12:7 13:7 14:7 15:10 16:6 17:3 18:3 19:5 20:10 21:10 22:7 
0.14848604096698981 0.27445090658702664 0.31067571117708281 0.38133737429868497 0.3516294465216348 0.28247932510922419 0.26996122786788629 0.35547628681973387 0.32629593824983777 1:1 2:4 3:3 4:5 5:6 6:6 7:5 8:6 9:6 10:4 11:3 12:3 13:6 14:6 15:8 16:2 17:1 18:1 19:2 20:10 21:10 22:6 
0.024074703509017869 0.045964508516081852 0.052281407401535557 0.061355990270599063 0.06058830376719717 0.087725180876630449 0.046231864456952841 0.081721763946159556 0.10470516407578671 1:5 2:6 3:5 4:6 5:4 6:5 7:6 8:4 9:5 10:6 11:5 12:6 13:7 14:9 15:8 16:7 17:3 18:3 19:3 20:11 21:9 22:3 
0.0041227134437728571 0.007268742325411923 0.0093898778002962143 0.011506408397744531 0.010543593705049755 0 0.008484005890784142 0 0 1:3 2:4 3:4 4:6 5:6 6:6 7:6 8:6 9:6 10:6 11:4 12:5 13:7 14:7 15:10 16:3 17:2 18:2 19:4 20:10 21:10 22:7 
0.082075114747981764 0.16258391154392327 0.17187910844686413 0.20850062768366828 0.20452371780115405 0.15647172670763143 0.14897607156187859 0.1825340304876503 0.1368401854564964 1:4 2:6 3:5 4:3 5:4 6:4 7:3 8:4 9:4 10:3 11:4 12:6 13:6 14:9 15:4 16:4 17:3 18:3 19:3 20:10 21:8 
0.27434829101004998 0.50505220415114904 0.57166114404147106 0.70421987725552304 0.64986179855724802 0.66131943900696055 0.49806646777591285 0.71778215429627235 0.59538747656985791 1:5 2:6 3:5 4:5 5:5 6:5 7:6 8:6 9:7 10:6 11:5 12:7 13:7 14:10 15:10 16:9 17:3 18:3 19:3 20:11 21:9 22:3 
0.31958913253054888 0.58954836783810716 0.66760577828766254 0.8188053018038145 0.75962404654179139 0.69108307504734268 0.58089320621304996 0.77892246167792478 0.71656159271808417 1:1 2:4 3:3 4:6 5:6 6:6 7:6 8:4 9:5 10:3 11:3 12:1 13:6 14:9 15:9 16:3 17:2 18:1 19:1 20:8 21:5 22:4 
0.20636266826681884 0.38051972162854897 0.4307302843921112 0.52949941551451907 0.49026128817590298 0.41761689035153232 0.37534121996382341 0.50305812256130078 0.45675471957590746 1:5 2:7 3:8 4:6 5:6 6:6 7:6 8:6 9:7 10:6 11:7 12:8 13:8 14:8 15:11 16:5 17:4 18:4 19:6 20:11 21:11 22:10 
0.10134834811855847 0.18699001959963801 0.21181147287223262 0.2612080312807939 0.24167723812140054 0.20591541992226398 0.18511039719126923 0.24937910379192441 0.21958418590253337 1:4 2:5 3:6 4:6 5:6 6:6 7:6 8:6 9:6 10:6 11:9 12:5 13:7 14:9 15:9 16:5 17:4 18:4 19:4 20:11 21:9 22:9 
0.35674132772023909 0.65846856878268201 0.74612731543149491 0.91501975924145207 0.85505717702292616 0.71353258709612577 0.64928170795062123 0.86069322213327848 0.81744619573413613 1:4 2:4 3:1 4:4 5:6 6:6 7:6 8:4 9:5 10:4 11:3 13:3 14:4 15:9 16:2 17:2 18:2 19:2 20:8 21:8 22:7 
0.079906052787378168 0.20669338955751373 0.16797724634313874 0.20644843813268354 0.19750589039559172 0.1406039401577486 0.15942901566207887 0.19653037817315236 0.16800551959846366 1:3 2:5 3:4 4:3 5:2 6:2 7:3 8:2 9:2 10:3 11:4 12:4 13:2 14:9 15:4 16:4 17:2 18:2 19:3 20:4 21:7 
0.20138882103932731 0.37253766728472065 0.42176027127150051 0.51851329486190845 0.4815740359806932 0.46595254236840744 0.36722739607605465 0.52098446694580425 0.47557100606723862 1:3 2:4 3:3 4:6 5:6 6:6 7:5 8:6 9:6 10:5 11:6 12:5 13:5 14:9 15:9 16:3 17:3 18:4 19:4 20:10 21:7 22:7 
0.15788986785924664 0.28899576278804312 0.32918532666577727 0.40512487806346142 0.37452077485514862 0.3008221474902088 0.28731516642916372 0.36394094394540055 0.36578232043173314 1:4 2:7 3:5 4:4 5:4 6:4 7:5 8:4 9:4 10:3 11:5 12:6 13:6 14:9 15:4 16:4 17:3 18:3 19:3 20:11 21:11 22:1 
0.03820675503780549 0.058800985053933615 0.080668324812650904 0.10260904211716051 0.090469568613037163 0.13820946640292564 0.071772457547872107 0.090557443983807606 0.11637538691921412 1:3 2:5 3:5 4:2 5:2 6:3 7:4 8:4 9:3 10:2 11:5 12:4 13:2 14:9 15:4 16:4 17:2 18:2 19:3 20:7 21:9 
0.036418356702700466 0.063346547379104015 0.073336548162836329 0.08899592371503684 0.084264296172815029 0.10585069517860206 0.065591788403447468 0.11798855259329392 0.096124093528269075 1:3 2:6 3:5 4:4 5:4 6:4 7:4 8:6 9:5 10:3 11:5 12:5 13:6 14:9 15:6 16:6 17:2 18:3 19:3 20:10 21:9 
0.24305722689202569 0.44817678864839711 0.50752397183794717 0.62027746458328792 0.57692990865547122 0.4988674118711372 0.44199202268742477 0.57787189806474404 0.51897270132534268 1:5 2:4 3:4 4:6 5:6 6:6 7:6 8:7 9:6 10:6 11:3 12:5 13:7 14:10 15:11 16:6 17:2 18:3 19:3 20:8 21:7 22:7 
0.21620069550471485 0.40411400081634191 0.45425506265789217 0.55561935294730691 0.52857531174063932 0.44253050547481204 0.39575976677393065 0.51895668548332285 0.47617525430786267 1:3 2:5 3:2 4:2 5:2 6:3 7:4 8:2 9:2 10:2 11:6 12:6 13:1 14:9 15:3 16:3 17:4 18:3 19:3 20:5 21:8 
0.27471106694647329 0.56839251910322253 0.57717824860969125 0.70535509255494533 0.65893998330884884 0.54635738523919386 0.49977309938762415 0.66336649734624031 0.60021186229623857 1:2 2:3 3:1 4:1 5:2 6:2 7:2 8:1 9:1 10:4 11:5 12:3 13:1 14:6 15:3 16:3 17:1 18:2 19:2 20:3 21:6 
0.24169343211565181 0.44700192567965541 0.50382880423301823 0.62174908048468636 0.57445065441196219 0.47763875949633672 0.43940072630447413 0.5831346004691863 0.52569618733410617 1:3 2:6 3:5 4:8 5:4 6:4 7:4 8:4 9:4 10:6 11:5 12:6 13:7 14:9 15:5 16:5 17:4 18:4 19:4 20:11 21:9 22:1 
0.023289195167781877 0.04303895461561083 0.048315466335562149 0.061414884016890547 0.055410600230942658 0.036003164664254649 0.042587275489834979 0.047166434229134135 0.0021550968890671133 1:5 2:5 3:7 4:6 5:7 6:6 7:6 8:6 9:7 10:6 11:7 12:7 13:9 14:10 15:11 16:6 17:3 18:3 19:6 20:10 21:10 22:7 
0.3459612225478545 0.65324094545476363 0.73120506688582076 0.8863081517506266 0.83639744290193796 0.68439340237186785 0.67665738553620614 0.83511429770204559 0.76013476005454528 1:2 2:3 5:2 6:2 7:3 8:3 9:1 10:1 11:4 12:2 14:5 15:2 16:2 17:1 18:2 19:2 20:2 21:6 22:1 
0.15588570643775665 0.28753355776717782 0.32673907965667426 0.40106161231525628 0.37132066391220148 0.32304664930358035 0.28469775297719102 0.37324213834345105 0.33744793815198043 1:3 2:4 3:4 4:6 5:6 6:6 7:6 8:6 9:6 10:6 11:3 12:1 13:7 14:9 15:9 16:4 17:2 18:2 19:2 20:8 21:7 22:7 
0.19135480871059693 0.35531395732241511 0.40193414852088816 0.4907217837898728 0.45705280043102531 0.43476838190404188 0.34881526008580777 0.48479520653530506 0.4720727845359764 1:5 2:6 3:5 4:4 5:4 6:4 7:4 8:7 9:6 10:4 11:5 12:6 13:7 14:9 15:7 16:7 17:3 18:3 19:4 20:11 21:9 
0.40577709957029662 0.74781078738566942 0.84697358526556488 1 0.96239314436281631 0.83281062034145714 0.73771996931214368 0.990832969317617 0.89401447420819502 1:5 2:6 3:9 4:7 5:7 6:7 7:7 8:7 9:7 10:6 11:5 12:7 13:8 14:10 15:12 16:12 17:3 18:4 19:4 20:11 21:9 22:7 
0.14466151685196657 0.26606325466750586 0.30055171619185272 0.37245030205497037 0.34186363801007957 0.26888251522165335 0.26163709699221993 0.34344612860365054 0.32602305934455283 1:3 2:4 3:8 4:6 5:6 6:6 7:6 8:6 9:6 10:6 11:4 12:5 13:7 14:9 15:9 16:4 17:3 18:4 19:4 20:10 21:8 22:8 
0.018760895908463894 0.037927491537014094 0.043997112078372161 0.059061020269770517 0.049808893585365499 0.090877222755425507 0.038941096545202364 0.071076845242983064 0.030296202329927052 1:4 2:5 3:4 4:6 5:6 6:6 7:6 8:6 9:6 10:7 11:4 12:4 13:7 14:9 15:9 16:6 17:2 18:3 19:3 20:11 21:7 22:7 
0.07533147023084058 0.13921319872526894 0.15796957916142246 0.1917603110412098 0.17853772340352583 0.16153340753106976 0.13840388570490572 0.18084149635767399 0.17593208022793988 1:4 2:7 3:7 4:6 5:6 6:6 7:7 8:6 9:6 10:6 11:5 12:8 13:8 14:9 15:11 16:5 17:3 18:3 19:6 20:11 21:11 22:7 
0.054653704834121429 0.10138618916179122 0.11494667324355319 0.13680425468700125 0.12921090373062333 0.076154044189584422 0.10030654044624125 0.10822826504312628 0.056965860602101306 1:4 2:4 3:4 4:6 5:6 6:6 7:6 8:6 9:6 10:6 11:7 12:5 13:8 14:8 15:10 16:4 17:2 18:2 19:5 20:10 21:10 22:7 
0.15407310181332895 0.28995007692462649 0.3244786149179858 0.40054327632643005 0.37310881541609114 0.31053140138228136 0.28355057997664895 0.39503457503059092 0.37709029197070087 1:5 2:6 3:5 4:4 5:6 6:4 7:4 8:4 9:4 10:7 11:5 12:6 13:7 14:9 15:6 16:6 17:4 18:4 19:4 20:11 21:9 
0.0052129301450553793 0.0092946754327889302 0.014044143982345301 0.012774155577606134 0.012261780649827215 0.014862263839268752 0.011474469400649934 0 0 1:3 2:6 3:5 4:4 5:5 6:4 7:5 8:4 9:4 10:6 11:6 12:6 13:8 14:9 15:5 16:5 17:3 18:3 19:3 20:11 21:9 22:2 
0.046857709497953218 0.079825501652011632 0.096398457341463364 0.11996439268373356 0.099499068281767092 0.030244237702852957 0.085738135143079611 0.095924283719176273 0.054679115578040269 1:3 2:5 3:5 4:4 5:4 6:3 7:2 8:3 9:3 10:3 11:5 12:5 13:4 14:9 15:4 16:4 17:2 18:3 19:3 20:7 21:9 
0.044015530006727373 0.080679308760227025 0.091935472932483678 0.11625963709412906 0.10279834378169518 0.064323306778985095 0.079911455618324093 0.1162709675061421 0.046006913500892151 1:3 2:6 3:5 4:4 5:4 6:4 7:4 8:6 9:6 10:6 11:5 12:6 13:7 14:9 15:7 16:7 17:3 18:3 19:3 20:11 21:9 
0.10746087157152252 0.19726996447273101 0.22263750884438396 0.27589725198372972 0.25240428340918775 0.17792601363287017 0.19495151542076947 0.24754772012707477 0.24007087102719157 1:4 2:4 3:4 4:7 5:6 6:6 7:6 8:6 9:6 10:6 11:5 12:7 13:7 14:7 15:10 16:4 17:3 18:3 19:6 20:10 21:10 22:7 
0.0024408117169170155 0.001264257864454056 0.0039121255219304405 0.0024235865484789785 0.00078115599055936745 0 0.0015221872254977955 0 0 1:5 2:6 3:5 4:6 5:5 6:4 7:4 8:4 9:4 10:7 11:5 12:6 13:7 14:9 15:7 16:7 17:4 18:3 19:3 20:11 21:9 22:1 
0.2230591517377136 0.39489169034411908 0.46518658070588259 0.57223843635769356 0.53105861850907277 0.4324948056008881 0.4023932077856443 0.53630027318850859 0.47881315902125271 1:3 2:5 3:2 4:3 5:2 6:2 7:2 8:3 9:3 10:2 11:5 12:3 14:9 15:3 16:3 17:2 18:2 19:2 20:6 21:8 
0.074503077218118607 0.13633813895922309 0.15437338494139891 0.19082500505886377 0.17598616205026876 0.13879422327248084 0.13344277207325531 0.17615240353344275 0.18040953790998243 1:4 2:7 3:7 4:7 5:6 6:7 7:6 8:6 9:6 10:6 11:7 12:7 13:9 14:9 15:11 16:6 17:3 18:3 19:6 20:11 21:11 22:7 
0.13636700479441782 0.25154223584943503 0.28537832750976672 0.34983169949172888 0.32360263910063497 0.37161679598060521 0.24817903433492378 0.34209340517788134 0.48123313901686698 1:4 2:5 3:8 4:6 5:6 6:6 7:8 8:6 9:6 10:6 11:8 12:7 13:7 14:10 15:10 16:5 17:3 18:6 19:6 20:11 21:9 22:9 
0.16189698207901701 0.32168255097509141 0.33979154619497054 0.41425012213342455 0.40076506599279144 0.40294477263907624 0.29431488782289356 0.42356577751811825 0.3915530102349089 1:3 2:6 3:5 4:4 5:2 6:3 7:3 8:3 9:2 10:3 11:4 12:6 13:1 14:9 15:5 16:5 17:3 18:3 19:3 20:7 21:8 
0.15007218184130694 0.27552901960121562 0.31414631113819613 0.38459057966152566 0.3585204339762324 0.32802312145591472 0.27218703438506664 0.38430674129563069 0.36756436656658131 1:3 2:5 3:5 4:2 5:4 6:2 7:5 8:2 9:3 10:3 11:4 12:5 13:2 14:9 15:5 16:5 17:2 18:3 19:3 20:6 21:8 
0.21867773211926819 0.40338946542252319 0.45743516303559684 0.56261768695166725 0.52263808691790525 0.43588088614211301 0.39880083234747293 0.53114697638616393 0.54221896839771555 2:4 3:3 4:4 5:6 6:6 7:5 8:6 9:6 10:3 11:3 12:1 13:5 14:5 15:7 16:1 17:1 18:1 19:3 20:9 21:9 22:6 
0.32763364771862308 0.60464552830281171 0.68452739086261172 0.83926552628648166 0.77751843003131482 0.64683173450039455 0.59626983615617157 0.78624643987951282 0.70811739435440257 2:2 3:4 4:5 5:6 6:6 7:6 8:4 9:5 10:5 11:3 13:4 14:9 15:9 18:1 19:1 20:8 21:7 22:7 
0.026636789241380954 0.047746291319317777 0.050162455595965917 0.06426754930930044 0.057192473549966073 0.027362127247149731 0.04553217187679981 0.041528085383653462 0 1:3 2:6 3:7 4:4 5:5 6:4 7:4 8:4 9:4 10:4 11:5 12:6 13:7 14:9 15:4 16:4 17:3 18:4 19:4 20:11 21:9 22:1 
0.12594588969315434 0.23192012886742233 0.259953215646055 0.32301582431746739 0.29813590428571091 0.22442465633829156 0.22669821345863089 0.31180123317478109 0.26390496714363743 1:5 2:6 3:5 4:5 5:5 6:4 7:4 8:5 9:4 10:7 11:6 12:6 13:7 14:9 15:6 16:6 17:3 18:3 19:4 20:11 21:9 22:4 
0.12755922099434833 0.23456875564652679 0.26506222467486856 0.32865529134966115 0.30267996143510228 0.27268704760257129 0.23143720939103943 0.3058559561076355 0.25823607191956127 1:2 2:4 3:3 4:4 5:6 6:6 7:6 8:6 9:6 10:6 11:4 12:1 13:6 14:6 15:9 16:2 17:1 18:1 19:4 20:9 21:9 22:7 
0.042890590593709629 0.079471999344257416 0.090575275772015976 0.11692379048488513 0.10367218515951532 0.13607292140068672 0.078516470913678429 0.15827380271531613 0.12067917023760634 1:3 2:5 3:5 4:4 5:4 6:5 7:4 8:3 9:4 10:5 11:5 12:5 13:5 14:9 15:5 16:5 17:2 18:3 19:3 20:9 21:9 22:2 
0.07522346811169689 0.13826139101539897 0.15736113111980121 0.19230841605210708 0.17768954763006639 0.12670247353885711 0.1361423168843654 0.17016475279052112 0.14907859460146675 1:5 2:5 3:6 4:6 5:6 6:6 7:6 8:6 9:6 10:6 11:6 12:7 13:7 14:9 15:9 16:5 17:3 18:3 19:3 20:12 21:10 22:10 
0.009081809908605647 0.013565834360527648 0.013418822954255056 0.012740416145662063 0.014747735981130661 0 0.011591819588863968 0 0.031744385396979345 1:4 2:5 3:4 4:6 5:6 6:6 7:6 8:6 9:6 10:6 11:4 12:3 13:7 14:9 15:9 16:5 17:2 18:2 19:3 20:11 21:7 22:7 
0 0 0 0 0 0 0 0 0.014395447618647384 1:5 2:6 3:7 4:5 5:4 6:4 7:4 8:4 9:4 10:4 11:5 12:6 13:7 14:9 15:5 16:5 17:4 18:4 19:4 20:11 21:9 
-0.7294152903699298 0.65072455457618728 0.71410441559863114 0.80280915072044523 0.76869875104634 0.68602317479057184 0.64616093370830507 0.77367914533178339 0.72926089440774244 1:2 2:3 3:3 4:3 5:1 6:3 7:3 8:1 9:3 10:3 11:3 12:2 17:10 18:10 19:10 
-0.028337492536003019 0.024241107889957508 0.026322145984154065 0.033643861673938957 0.031613389140591343 0.026106509275161203 0.023275784025666432 0.031996085477031457 0.028976168314021188 1:3 2:3 3:5 4:4 5:3 6:3 7:3 8:4 9:3 10:3 11:3 12:6 15:1 16:2 17:12 18:12 19:12 20:2 21:1 22:1 
-0.19085563762607152 0.172360835419548 0.18592453522341088 0.20626602828780077 0.19725085265360187 0.18154296321321325 0.17537370725434315 0.20079490244052733 0.19213491759233953 1:3 2:6 3:6 4:3 5:3 6:3 7:4 8:3 9:3 10:3 11:3 12:10 13:1 14:3 15:3 16:4 17:12 18:12 19:12 20:1 21:1 22:1 
-0.096943022200379481 0.090431134393121976 0.098145865709411098 0.10592660735842578 0.10185455216872302 0.094123788870719427 0.090141278608907055 0.10330883580609726 0.097864794481151748 1:3 2:5 3:5 4:3 5:3 6:3 7:3 8:3 9:3 10:3 11:3 12:3 15:2 16:2 17:12 18:12 19:12 
-0.27025027584344102 0.24851019484441469 0.26154861645542293 0.29125654079709018 0.28156941392530782 0.25870217392519385 0.24779972499947281 0.28263566696408826 0.27078610899720662 1:3 2:6 3:6 4:3 5:3 6:3 7:3 8:3 9:3 10:3 11:5 12:9 14:4 15:4 16:3 17:12 18:12 19:12 20:1 21:1 22:1 
-0.0085818789574258012 0.0070236362319280824 0.0098634029948903752 0.0081415742217798952 0.0076138539320656489 0.0078346402472622059 0.0066997850778613048 0.0090351548504316124 0.0087299745700303456 1:3 2:6 3:6 4:4 5:3 6:4 7:3 8:3 9:4 10:3 11:3 12:9 14:3 15:3 16:4 17:12 18:12 19:12 20:3 21:1 22:1 
-0.32990437785299564 0.29726571548685143 0.32179536401980474 0.36216141862356688 0.34595296415873555 0.31087392954379378 0.29473025414697013 0.34897741322295445 0.3301611522766027 1:2 2:2 3:3 4:3 5:3 6:3 7:3 8:3 9:3 10:3 11:3 12:3 17:10 18:12 19:12 
-0.055947752526235545 0.053531204466959387 0.054125153937568268 0.058686170112670556 0.057459142833459889 0.054641503442765561 0.053197472337149457 0.057075900799744561 0.055702145219650473 1:3 2:3 3:6 4:3 5:3 6:3 7:3 8:3 9:3 10:3 11:3 12:4 15:1 16:1 17:12 18:12 19:12 20:2 
-0.25231905507601332 0.23028627142762359 0.24966121396566057 0.27140691011664658 0.26279329196261586 0.23960808719121954 0.22857315859518484 0.26458133184817129 0.25180157496406452 1:3 2:4 3:5 4:3 5:3 6:4 7:4 8:4 9:3 10:3 11:3 12:5 14:1 15:2 16:1 17:12 18:12 19:12 20:3 21:1 
-0.30038436183385203 0.27503527153266233 0.29387352922294385 0.32114731474843961 0.31182340162804245 0.28641749977057773 0.27439851139607757 0.31447061032564633 0.30049321223996633 1:3 2:6 3:6 4:3 5:3 6:3 7:3 8:5 9:3 10:3 11:4 12:9 14:3 15:4 16:5 17:12 18:12 19:12 20:1 21:1 22:1 
-0.64621617428697131 0.59750218504158914 0.64306735404784532 0.69432206551116127 0.67178511778974237 0.61782257553677433 0.59162508670965197 0.67449804232211563 0.64670577807451524 1:4 2:5 3:6 4:3 5:3 6:3 7:3 8:3 9:3 10:5 11:6 12:8 14:2 15:4 16:3 17:12 18:12 19:12 20:3 21:3 22:1 
-0.22682837391342739 0.21547479981168235 0.22203686382120463 0.24348818133155142 0.23720674512169171 0.21830493533032966 0.20867199270678088 0.23512502993809956 0.22573044829334171 1:3 2:6 3:6 4:4 5:3 6:3 7:3 8:4 9:3 10:3 11:3 12:10 13:1 14:3 15:3 16:4 17:12 18:12 19:12 20:2 21:1 22:1 
-0.63459558083412126 0.58739488881991142 0.62906058125789543 0.6822363782774038 0.6594715775951534 0.60713673244595834 0.5839569979623872 0.66331478571077462 0.63494378503044846 1:5 2:7 3:5 4:3 5:3 6:3 7:3 8:3 9:3 10:4 11:3 12:8 15:3 16:4 17:12 18:12 19:12 20:3 21:3 22:1 
-0.31606602759419566 0.2985693720487449 0.31192707273412823 0.33055254265833645 0.32298174221285247 0.30697149180902605 0.29843993260707719 0.3247419628322778 0.3159598642390925 1:3 2:3 3:4 4:3 5:3 6:3 7:3 8:3 9:3 10:3 11:4 12:5 16:1 17:12 18:12 19:12 20:1 21:2 
-0.19142551215728265 0.17678198996058411 0.18820863665779225 0.20664714437906961 0.20032981606176711 0.18426839252641891 0.17540691086813831 0.20030366021161994 0.19118183716012391 1:1 2:3 3:3 4:3 5:3 6:3 7:3 8:3 9:3 10:3 11:3 12:5 15:1 16:1 17:12 18:11 19:11 
-0.46747889884177513 0.43151447476717802 0.45797535000778233 0.50156680865568604 0.48533464745392702 0.44698095888631562 0.42856572312441454 0.48712623584972037 0.46737069305543638 1:3 2:4 3:6 4:3 5:3 6:3 7:3 8:3 9:3 10:3 11:3 12:5 14:3 15:1 16:1 17:12 18:12 19:12 20:1 
-0.2205581126796459 0.206858053221157 0.21772560679847255 0.2354062548679238 0.22904121242711131 0.21078195400033936 0.20159816189102683 0.2289677749512159 0.21861877195072313 1:3 2:7 3:6 4:3 5:3 6:4 7:4 8:3 9:3 10:3 11:5 12:9 13:1 14:3 15:3 16:4 17:12 18:12 19:12 20:2 21:2 22:2 
-0.39675581427563555 0.36560502676920342 0.38604783819484773 0.42276389982036411 0.4104470669268227 0.378299134749921 0.36384358894553565 0.41160258841517972 0.39626426927898417 1:4 2:5 3:5 4:3 5:3 6:3 7:3 8:3 9:3 10:3 11:3 12:4 15:3 16:2 17:12 18:12 19:12 22:1 
-1 1 1 1 1 1 1 1 1 2:3 3:3 4:3 5:3 6:3 7:3 8:3 9:3 10:3 12:1 17:9 18:10 19:9 
-0.17489941778965956 0.15276646903127555 0.16761609584318823 0.19398030924364157 0.18478440402488017 0.16145507467738296 0.15032837801346854 0.18598671096412442 0.17467895898031185 1:2 2:3 3:3 4:3 5:3 6:3 7:2 8:3 9:3 10:3 11:3 12:3 17:12 18:12 19:10 
-0.58303413733955034 0.53643757742441533 0.57145920486230894 0.62628266588388537 0.60632481035718522 0.55769934380408737 0.53390206416149744 0.60816452915982155 0.58258189544887296 1:3 2:5 3:5 4:3 5:4 6:5 7:3 8:3 9:3 10:3 11:3 12:8 15:4 16:5 17:12 18:12 19:12 20:1 21:1 22:1 
-0.022093484326844676 -0.0067924432322399048 0.0057569936072165116 0.016735941785904984 0 0.010895029100146052 0.27839432596948449 0.014693424885104563 0.011056188412109254 1:6 2:6 3:3 4:2 5:2 7:1 8:1 9:1 10:3 11:1 12:3 14:5 15:4 16:4 17:4 18:4 19:3 20:3 21:2 
-0.25092609162920687 -0.12925311703418363 0.24482165730114799 0.29487020802792463 0.25864414671260266 0.23757164795138444 0.3621684619085998 0.27850141547126095 0.25500054155986196 1:6 2:6 3:3 4:1 7:1 8:1 9:1 10:3 11:3 12:7 13:2 14:5 15:5 16:4 17:4 18:5 19:4 20:3 
-0.54111057693309195 -0.26675531776714934 0.50632039695754916 0.61148588707901086 0.57356441039705264 0.49719475497232773 0.43383537812224626 0.58276548841756992 0.54000461046807291 1:5 2:9 3:7 4:3 5:4 6:3 7:3 8:4 9:4 10:4 11:3 12:9 13:6 14:6 15:6 16:5 17:7 18:7 19:8 20:6 21:6 22:1 
-0.16958329713701148 -0.089593193073024338 0.1791970647203468 0.20187031635287581 0.21815142391171055 0.16433199180231667 0.21444555234163523 0.19406342993367359 0.1794000689789379 1:6 2:7 3:4 4:1 5:1 6:1 7:2 8:1 9:1 10:3 11:4 12:5 13:4 14:5 15:5 16:5 17:4 18:4 19:4 20:5 
-0 -0 0.074010100079554886 0 0 0 0 0 0 1:5 2:6 3:3 4:3 5:3 6:1 7:3 8:3 9:3 10:2 11:3 12:9 13:2 14:3 15:5 16:5 17:6 18:6 19:9 20:4 21:4 
-0.29876323769530372 -0.1517267572216984 0.289289300939361 0.36046105096406489 0.34175160441465585 0.28017521662418282 0.27585613306903406 0.33594692452071967 0.30317237019978177 1:6 2:6 3:3 7:1 10:3 11:3 12:3 13:2 14:5 15:5 16:3 17:2 18:3 19:4 20:1 
-0.44608030056128001 -0.22108694713591417 0.47422382865628593 0.50385485627378312 0.75432388794296923 0.40685993088716249 0.47002704363486897 0.47827584242318916 0.45691581895526906 1:6 2:7 3:4 4:2 5:2 6:3 7:2 8:1 9:1 10:3 11:1 12:5 14:5 15:4 16:4 17:4 18:6 19:6 20:5 21:3 
-0.41768709222324246 -0.20747880045104816 0.49654289357926373 0.47414357901078047 0.49408299946296774 0.38248976431994425 0.38936398161447183 0.44949663001379847 0.41338055295322984 1:5 2:5 3:3 4:3 5:3 6:1 7:1 8:1 10:2 11:3 12:4 13:2 14:2 15:5 16:3 17:2 18:3 19:8 20:3 21:3 
-0.17939324681415472 -0.09028823464508344 0.19978928591705297 0.20491212116821045 0.33468599062837051 0.1665861618235018 0.1513633933744116 0.19415214710678014 0.18079505410870561 1:6 2:8 3:4 4:1 5:2 6:3 7:3 8:1 9:1 10:3 11:4 12:8 13:4 14:5 15:5 16:4 17:6 18:6 19:6 20:7 21:1 
-0.41895819815855484 -0.20571459987956764 0.39901495828926375 0.47213234137613896 0.42449438663422906 0.38063425434401316 0.30295916060686373 0.44576617957732967 0.41090696281439687 1:5 2:6 3:3 4:3 5:3 6:1 7:1 8:2 10:3 11:3 12:8 13:3 14:4 15:5 16:2 17:4 18:4 19:8 20:4 21:4 
-0.083705326909232963 -0.040385943588378818 0.025091470813089954 0.097224361825701142 0.058127316690437414 0.077969282869792322 0.065036562682545498 0.089343261983115846 0.083078407462599813 1:7 2:7 3:3 4:3 5:3 6:1 7:3 8:2 9:3 10:4 11:3 12:10 13:5 14:5 15:5 16:5 17:6 18:6 19:8 20:4 21:4 22:1 
-0.18648523777649331 -0.096170237523405006 0.097742184036509167 0.21444099844364808 0.19766312393498686 0.17238646268359473 0.1512439519889438 0.20231222789664416 0.18527683949877058 1:6 2:8 3:6 4:5 5:5 6:3 7:2 8:3 9:4 10:3 11:3 12:10 13:4 14:5 15:5 16:5 17:5 18:10 19:10 20:6 21:4 22:4 
-0.25140019127899682 -0.12584426635195664 0.25414943964286846 0.2872577545549333 0.29078729801135889 0.23059338283603778 0.21061775578652342 0.27336579939990702 0.25427956810351304 1:6 2:8 3:7 4:3 5:6 6:3 7:3 8:1 9:2 10:3 11:3 12:8 13:4 14:5 15:5 16:6 17:6 18:7 19:7 20:6 21:4 22:3 
-0.013705438335600241 -0.0088545268203704171 0 0.016046938486698078 0 0.011177335767602485 0.0093792638811293107 0.019085746669237565 0.015014378304182533 1:5 2:6 3:3 4:3 5:3 6:1 7:1 8:3 9:3 10:4 11:3 12:9 13:3 14:4 15:5 16:5 17:5 18:5 19:9 20:4 21:4 
-0.46302688828205535 -0.23257552394530362 0.43988146991303984 0.52966230723589391 0.44998536936578509 0.42604254128663421 0.37069675813215036 0.50100038100038757 0.46118759496972361 1:6 2:8 3:4 4:3 5:3 6:3 7:2 8:1 9:1 10:4 11:3 12:8 13:5 14:5 15:5 16:4 17:5 18:8 19:8 20:6 
-0.51379276025831067 -0.25348967129201011 0.4747590890006308 0.57829478483096164 0.60611267622803255 0.46670627470780252 0.42718383060124437 0.54770192123451422 0.5049147990494911 1:6 2:7 3:3 4:3 5:3 6:1 7:1 8:1 10:1 11:3 12:3 13:4 14:4 15:5 16:2 17:2 18:3 19:6 20:3 21:3 
-0.0086603803385203963 -0.0022629084709608312 0 0.0065937972110606683 0.011970302557900167 0.0072518963711558516 0 0.017027929305512932 0.0069658294682292156 1:6 2:8 3:6 4:5 5:3 6:3 7:2 8:1 9:4 10:3 11:4 12:8 13:4 14:6 15:6 16:6 17:5 18:7 19:7 20:6 21:3 22:3 
-0.33889775323286214 -0.17088711520423008 0.49367095183091209 0.38646348064044928 0.39542015518391632 0.31298117949294235 0.29182205552150858 0.36958874183971879 0.34468865719814101 1:5 2:6 3:4 4:3 5:3 6:3 7:4 8:2 9:3 10:2 11:3 12:10 13:2 14:3 15:5 16:6 17:6 18:6 19:8 20:5 21:5 22:2 
-0.047286075386347944 -0.022539624832224034 0.021872251666115432 0.054902810727106094 0.034021591083981534 0.04478701243989773 0.019365989465097832 0.053236934358908361 0.04837623059913089 1:5 2:6 3:3 4:3 5:3 6:1 7:1 8:2 9:1 10:2 11:3 12:9 13:2 14:3 15:5 16:5 17:4 18:4 19:8 20:4 21:4 
-0.51699755993873109 -0.25267059826147154 0.81982525877243162 0.5911386012504678 0.58096914169268044 0.47690754161706966 0.41966804371331351 0.56374626203275313 0.51776776916969058 1:6 2:8 3:6 4:5 5:5 6:3 7:2 8:4 9:3 10:5 11:5 12:9 13:4 14:5 15:5 16:5 17:5 18:11 19:11 20:8 21:4 22:3 
-0.13486531473923186 -0.069326031646419858 0.1553661285003127 0.15808925032408452 0.34447935751671482 0.12655478692386804 0.14234805013942964 0.14964910487164038 0.13538994491836848 1:7 2:7 3:3 4:4 5:1 6:3 7:2 8:1 9:1 10:3 11:3 12:7 13:2 14:5 15:5 16:4 17:5 18:7 19:7 20:6 21:1 
-0.30453453501026911 -0.15285925805621764 0.28443276639870096 0.34904665702293863 0.26447742200990015 0.28058109079229993 0.1778467098177974 0.33028091054124725 0.30407069896530992 1:6 2:6 3:3 4:1 5:1 6:2 7:3 8:1 9:1 10:3 11:3 12:8 13:2 14:5 15:5 16:4 17:6 18:6 19:6 20:4 
-1 -0.49370526168338319 0.95971761488337581 1 1 0.90896559681251676 0.89856069651991011 1 0.98501610065310263 1:2 2:5 7:2 8:3 10:4 11:3 12:3 13:3 14:3 15:4 16:3 17:3 18:3 19:3 
-0 -0 0 0 0 0 0.44172572255077325 0 0 1:6 2:6 3:3 4:1 7:1 8:1 9:1 10:4 11:3 12:4 13:3 14:5 15:5 16:4 17:4 18:4 19:3 20:2 
-0.33716688656745886 -0.18068409299394389 0.3230046917297229 0.38528155375894729 0.35780523102134876 0.31052470136635069 0.27787703601914399 0.36437336462216269 0.33578137464331892 1:6 2:8 3:6 4:5 5:5 6:3 7:2 8:3 9:2 10:5 11:5 12:8 13:4 14:5 15:5 16:5 17:5 18:11 19:11 20:6 21:3 22:3 
-0.35957096226077945 -0.16443469731004531 0.29884775262208063 0.376495838760534 0.33308893920370264 0.30739853468077605 0.43103118831070097 0.3610160660254681 0.33456035861872552 1:6 2:7 3:4 4:2 5:2 6:1 7:2 8:1 9:3 10:3 11:3 12:5 13:2 14:5 15:5 16:5 17:6 18:4 19:4 20:5 21:3 
-0.59011963447680416 -0.29454985685433288 0.54948497564440824 0.67281336293671479 0.63782301542690101 0.54234892291008974 0.4812537972213079 0.63651629488446637 0.58647792416701805 1:6 2:8 3:6 4:3 5:3 6:3 7:2 8:1 9:2 10:4 11:5 12:10 13:4 14:5 15:5 16:5 17:6 18:6 19:6 20:6 21:5 22:5 
-0.32001563127973992 -0.15875830531530938 0.31001715616996367 0.3585317295981299 0.35782864054443764 0.29194002842063282 0.24717699567343696 0.33937378755466524 0.31428410831241033 1:6 2:6 3:4 4:1 5:2 7:1 8:1 9:1 10:3 11:1 12:2 14:5 15:4 16:3 17:4 18:4 19:3 20:3 21:2 
-0.34408509941453164 -0.17239659134898083 0.36348636643001098 0.39479817287381958 0.37543261506863368 0.31779456399216133 0.28055565961851786 0.37415429203893158 0.34475434175001712 1:6 2:8 3:6 4:5 5:5 6:3 7:2 8:3 9:2 10:3 11:6 12:10 13:4 14:5 15:5 16:5 17:6 18:9 19:9 20:6 21:5 22:5 
-0.15573983656452231 -0.07273754255036613 0.14924871487096725 0.17868221239701704 0.17445560660137863 0.14375448920680062 0.11863974886789629 0.16461516995811756 0.15531971055228164 1:6 2:8 3:6 4:6 5:5 6:3 7:2 8:1 9:2 10:3 11:3 12:8 13:4 14:6 15:5 16:5 17:5 18:8 19:8 20:6 21:3 22:3 
-0.088569426135539711 -0.051602710886611926 0.047683243021314284 0.10128795589319105 0.094590725365053543 0.081055270421969985 0.096408679485076962 0.095427025996963288 0.089605733769038964 1:5 2:6 3:3 4:3 5:3 6:1 7:3 8:2 9:3 10:1 11:3 12:9 13:2 14:3 15:5 16:4 17:6 18:6 19:8 20:4 21:4 
-0.23041532700070161 -0.11741333404953797 0.18397812582608689 0.26595752017461405 0.27602021086980116 0.21441672204098022 0.14295020242705378 0.25282369475418148 0.2340679025450644 1:5 2:6 3:3 4:3 5:4 6:1 7:1 8:1 10:1 11:3 12:5 13:2 14:3 15:5 16:3 17:2 18:3 19:8 20:3 21:3 22:1 
-0.23078409815984266 -0.115091945264415 0.19551466261392209 0.26526324015642361 0.17788255048330787 0.21233142096571922 0.13497466718899823 0.25034886162988074 0.22858670859782745 1:6 2:8 3:6 4:1 5:1 6:3 7:2 8:1 9:2 10:3 11:3 12:7 13:4 14:5 15:5 16:5 17:4 18:6 19:6 20:6 21:1 22:1 
-0.078189733536630585 -0.030806517075666978 0.057418330031529151 0.088215633359587306 0.081957201730466125 0.073332203082263028 0.011364834509708767 0.080795821834867013 0.073982464322660355 1:5 2:6 3:3 4:3 5:3 6:1 7:1 8:2 9:4 10:2 11:3 12:9 13:2 14:3 15:5 16:5 17:5 18:5 19:9 20:4 21:4 
-0.78778843966232648 -0.3944482855358773 0.767299925167512 0.90328928222649962 0.88163205909364684 0.72607407911178468 0.94793654315558873 0.86030356892161419 0.78893374822243367 1:5 2:6 3:4 4:1 10:3 11:1 14:3 15:3 16:3 17:2 18:3 19:3 20:2 21:1 
-0.053539709361314372 -0.025090086044586183 0.030953992808741452 0.06245749379453229 0.029602804967080305 0.049625152610078688 0.032423499550120381 0.05826792367234343 0.05428285617521425 1:5 2:9 3:4 4:3 5:3 6:1 7:3 8:2 9:4 10:2 11:3 12:9 13:3 14:3 15:7 16:5 17:6 18:6 19:8 20:5 21:5 
-0.46051858766518966 -0.21343478982036079 0.41153915533579577 0.49405715034939901 0.4998594273852569 0.39285975329252321 0.37850238746115838 0.46520439966691129 0.42485919241588366 1:4 2:6 3:3 4:1 5:2 10:3 11:4 12:4 13:2 14:4 15:4 16:5 17:2 18:3 19:3 20:3 21:1 
-0.33352827378321015 -0.17592640083620678 0.2986947483019235 0.38215615610610432 0.34079222035438578 0.30708721328575644 0.26317502251873731 0.36083846045686424 0.33235901460240863 1:5 2:6 3:6 4:3 5:3 6:1 7:1 8:2 9:3 10:2 11:4 12:9 13:2 14:3 15:5 16:6 17:6 18:6 19:9 20:4 21:4 
-0.43491462444655654 -0.21917781627078364 0.42724558273116481 0.50282596196322937 0.57458057535314755 0.4040898215143563 0.71583992444627664 0.47570602341954216 0.43792858092114467 1:7 2:7 3:3 4:1 7:2 8:3 9:1 10:3 11:3 12:3 13:2 14:5 15:5 16:3 17:4 18:5 19:5 20:4 
-0.21739927144037041 -0.10902220774906325 0.17388740847700662 0.25050270283554993 0.19982839315799641 0.19926088109040918 0.171135124026152 0.23379733335247355 0.21589930654182743 1:7 2:8 3:5 4:2 5:2 6:3 7:2 8:3 9:5 10:3 11:3 12:9 13:5 14:5 15:5 16:5 17:5 18:8 19:8 20:7 21:4 
-0 -0.0033051690580144302 0.043821792652458509 0.0035343172142744354 0 0.0015111905654720831 0.09810510898703792 0.0037896593051469528 0.0019882320457100546 1:5 2:6 3:3 4:3 5:3 6:1 7:1 8:2 9:3 10:2 11:3 12:6 13:2 14:3 15:5 16:4 17:5 18:5 19:8 20:3 21:3 
-0.18173394238045001 -0.097904300963286353 0.17797689297575231 0.20931769339352277 0.18651152400334595 0.16835819587193868 0.16536149549040535 0.19770788469624814 0.18269795605573794 1:6 2:8 3:6 4:6 5:3 6:4 7:2 8:3 9:2 10:3 11:3 12:8 13:4 14:5 15:5 16:5 17:7 18:8 19:8 20:6 21:3 22:3 
-0.47764096022037977 -0.2395384333584209 0.48285169748914586 0.54724227418438809 0.57485008175236141 0.43989948797051587 0.44371716514584303 0.51723884115742702 0.47624031836667829 1:7 2:8 3:3 4:3 5:3 6:1 7:1 8:2 9:4 10:2 11:3 12:9 13:2 14:3 15:6 16:5 17:5 18:5 19:8 20:6 21:6 
-0.11612319889031825 -0.055765305282635527 0.22252031936889061 0.12795688851211462 0.23888446284646833 0.11124504651257533 0.13305648368990514 0.1281818411740285 0.11928529030434314 1:6 2:7 3:4 4:2 5:2 6:3 7:2 8:4 9:3 10:3 11:2 12:8 13:2 14:5 15:5 16:5 17:5 18:7 19:7 20:7 21:3 
-0.28683625375224747 -0.14876688590400147 0.27321963507332803 0.33147681339486634 0.31284339541238976 0.26596748637700912 0.23130670383055735 0.31226255968122496 0.28662813724035852 1:5 2:7 3:7 4:3 5:3 6:1 7:3 8:2 9:4 10:4 11:3 12:9 13:5 14:5 15:6 16:5 17:7 18:7 19:8 20:4 21:4 
-0.24700292033009527 -0.12443070211545841 0.31388977356955566 0.28254934917070201 0.31225337212001258 0.22986863340445796 0.20353296772391921 0.2707135844202051 0.24755633338563118 1:6 2:8 3:5 4:2 5:4 6:3 7:2 8:3 9:3 10:3 11:6 12:9 13:4 14:5 15:6 16:6 17:5 18:9 19:9 20:6 21:4 
-0.32543894768670428 -0.1627684084608495 0.38131429923896293 0.36994921253451124 0.40646465151020833 0.30065720772861892 0.2707012241756851 0.35295514386818888 0.32403293119933713 1:7 2:9 3:3 4:4 5:3 6:3 7:3 8:2 9:4 10:4 11:4 12:9 13:5 14:5 15:6 16:5 17:6 18:6 19:9 20:6 21:6 22:1 
-0.10092594323964212 -0.047497765289764106 -0.13102042953289858 0.11853493081642001 0.27554576098244848 0.10220041077369398 0.089590432125946168 0.14214170927277051 0.10796954730863736 1:5 2:7 3:3 4:2 5:4 6:5 7:5 8:5 9:4 10:4 11:5 12:7 14:4 15:6 16:6 17:5 18:10 19:10 20:9 21:6 
-0.097985714678123531 -0.046763517376257037 -0.10057446427330284 0.11316258262618768 0.077358478944542147 0.088635030036129561 0.15267156169972054 0.10582405313757209 0.09447697035012749 1:4 2:6 3:3 4:3 5:3 6:4 7:4 8:3 9:3 10:3 11:5 12:6 15:2 16:5 17:5 18:9 19:9 20:9 21:4 22:4 
-0.15521851239036066 -0.070936414757065483 -0.11694976604229487 0.17588979073567718 0.29355296000311509 0.14228217026177725 0.12753349609966894 0.17214209181512188 0.26967227570066815 1:5 2:7 3:2 4:2 5:4 6:5 7:6 8:3 9:1 10:2 11:4 12:6 14:3 15:5 16:5 17:4 18:8 19:8 20:9 21:5 
-0.61402410021625298 -0.31374973816612173 -0.52610172175116776 0.71582088000890853 0.67167751639190088 0.56208598291863898 0.51601790658281999 0.67671848145856495 0.61447293743974374 1:5 2:5 3:5 4:3 5:5 6:5 7:5 8:3 9:5 10:3 11:6 12:7 15:6 16:6 17:9 18:9 19:12 20:7 21:7 22:1 
-0.30807916421688714 -0.14245185410836553 -0.12666042413458398 0.35908945320883912 0.35234947245822867 0.28223337970320866 0.2586070642897807 0.33466217717229224 0.3129109321435673 1:4 2:7 3:7 4:5 5:5 6:6 7:5 8:3 9:3 10:5 11:7 12:7 14:5 15:5 16:5 17:5 18:12 19:12 20:9 21:6 22:5 
-0.46485722296033211 -0.21664992137469616 -0.4047385057581423 0.54307566465052315 0.61202110160004053 0.42525000345863817 0.39788765405634846 0.51066194374545804 0.47768936212625807 1:3 2:5 3:1 4:1 5:2 6:5 7:5 8:3 9:1 10:1 11:3 12:3 15:4 16:4 17:4 18:6 19:6 20:8 21:1 
-0.17698599974413159 -0.081492840343789841 -0.12942573335206622 0.20832193086536013 0.049747564845897513 0.16101459642175972 0.11556875451037876 0.19512531332894301 0.17507132715620258 1:4 2:4 3:1 4:1 5:3 6:4 7:4 8:3 9:1 10:1 11:3 12:3 16:4 17:4 18:8 19:8 20:8 
-0.045717562879500954 -0.03639331443969511 -0.042785774888646592 0.049177249579108094 0.047438565057128866 0.038240398311297462 0.034182182131511765 0.047677783268213571 0.047205334645676833 1:4 2:5 3:1 4:1 5:3 6:4 7:4 8:3 9:3 10:1 11:4 12:6 15:2 16:5 17:6 18:9 19:9 20:8 
-0.57611566960896865 -0.26896725140258931 -0.48757407724324775 0.66996626023864958 0.61581063050565799 0.52676260412757059 0.46504597818741455 0.6314376742068516 0.57713217711347486 1:2 2:5 3:3 4:3 5:3 6:4 7:4 8:1 9:1 10:3 11:4 12:1 15:1 16:4 17:3 18:3 19:12 20:5 21:5 22:1 
-0.36254061776452934 -0.16772248765069966 -0.31806059973900458 0.42210281447106901 0.41070321138303201 0.32942572524565333 0.29232951327869289 0.39990248738674361 0.35783483120160131 1:4 2:6 3:1 4:3 5:5 6:4 7:4 8:3 9:3 10:3 11:7 12:7 14:2 15:3 16:5 17:5 18:9 19:9 20:9 21:4 22:4 
-0 -0 -0 0 0.19379537986723483 0 0 0 0 1:5 2:7 3:2 4:2 5:4 6:6 7:5 8:3 9:1 10:2 11:4 12:5 14:3 15:4 16:4 17:5 18:8 19:8 20:9 21:5 
-0.21712883963686475 -0.0998554908949148 -0.16814192125506591 0.25455466054906295 0.18408184130835423 0.19976199516801443 0.17924758640039523 0.25704149998835374 0.22212610306982133 1:5 2:5 3:4 4:4 5:3 6:5 7:5 8:5 9:3 10:3 11:3 12:7 15:6 16:5 17:6 18:6 19:12 20:8 21:8 22:1 
-0.30343976940530737 -0.1414458545796069 -0.61941280982275959 0.35320202716761512 0.33554906225923542 0.27692780270781797 0.25313717382938239 0.34101045863979879 0.30367264080605627 1:4 2:7 3:7 4:4 5:5 6:4 7:4 8:3 9:3 10:5 11:7 12:7 13:1 14:5 15:5 16:5 17:5 18:11 19:11 20:9 21:4 22:4 
-0.53826816572846892 -0.25089896253468802 -0.44954383998722558 0.62793660028859943 0.92046433526684257 0.4905557253222354 0.57766651530099877 0.59498996450557062 0.56080707560501375 1:5 2:6 3:2 4:2 5:4 6:5 7:5 8:4 9:2 10:2 11:4 12:3 15:4 16:4 17:4 18:8 19:8 20:9 21:7 
-0.135198201680613 -0.060023607502244516 -0.10537766400994501 0.15706434826849924 0.14005641288221946 0.12313400753794355 0.1134746967594867 0.1458332234115764 0.13205899691508219 1:4 2:6 3:5 4:6 5:6 6:4 7:4 8:3 9:3 10:7 11:7 12:7 14:3 15:4 16:6 17:6 18:12 19:12 20:9 21:5 22:5 
-0.83907210571723456 -0.40178462914119661 -0.72983767363257579 0.97890087724627262 0.99720628338778583 0.76456380574457516 0.78871534079268557 0.92798442305254469 0.8373469471776227 1:1 2:4 3:1 4:1 5:1 6:3 7:2 8:3 11:2 12:3 16:1 17:4 18:6 19:6 20:4 
-0.23804284955949889 -0.10989967584478233 -0.13374145947327964 0.27823778040492092 0.24144337051762074 0.21327974146394951 0.19202734234757979 0.24911781983234471 0.24200745823659525 1:5 2:7 3:3 4:2 5:4 6:5 7:6 8:4 9:5 10:4 11:5 12:7 14:4 15:5 16:5 17:6 18:10 19:10 20:10 21:7 
-0 -0.0012265018938320345 -0 0 0 0 0.0090007952141322456 0 0 1:5 2:7 3:3 4:2 5:4 6:5 7:6 8:3 9:4 10:4 11:5 12:7 14:5 15:5 16:5 17:5 18:10 19:10 20:9 21:6 
-0.14137379453507512 -0.065769281744062699 -0.13010293292763761 0.16362100748927089 0.1872519224537616 0.12994950412000492 0.1801401999857743 0.15712230503347763 0.14868036108550917 1:5 2:5 3:4 4:3 5:3 6:4 7:5 8:1 9:3 10:3 11:3 12:3 14:1 15:3 16:4 17:5 18:5 19:12 20:6 21:6 
-0.26393452249392718 -0.12581228583681833 -0.26274627554393198 0.30730468544119516 0.34569409010428892 0.24394193546244786 0.37821313144905072 0.2916126094804356 0.26850495104504973 1:4 2:5 3:2 4:3 5:3 6:4 7:3 8:1 9:1 10:3 11:2 15:1 16:3 17:4 18:4 19:9 20:5 21:5 
-0.74993253075837907 -0.34691924086583298 -0.64833479954796136 0.86846044183017601 0.81925697008287179 0.67562626820642979 0.63059844865343728 0.81086438414316364 0.73995486255593734 1:4 2:2 3:2 4:3 5:3 6:3 7:2 8:1 9:1 10:2 11:3 12:1 16:2 17:4 18:4 19:7 20:5 21:5 
-0.040645784885271576 -0.02019573579755321 -0.028277939744532701 0.046709795880697312 0.024175199515160506 0.036583355638596146 0.037777633823487547 0.046854229182144123 0.035346026219491442 1:5 2:5 3:3 4:3 5:3 6:5 7:5 8:5 9:4 10:5 11:5 12:7 15:5 16:6 17:8 18:8 19:12 20:8 21:8 
-0.041962089033094181 -0.029921063143624006 -0.060101435351479993 0.047841288661095903 0.03502048924312446 0.037372907221406119 0.03687058173013695 0.042026209183522713 0.041035238830114257 1:4 2:7 3:6 4:3 5:5 6:4 7:4 8:3 9:3 10:5 11:5 12:7 14:2 15:2 16:5 17:6 18:11 19:11 20:9 21:5 22:5 
-0.15776006542120366 -0.068364731934040551 -0.13656817712785765 0.18575238208783834 0.10593238667121252 0.14617674793648203 0.12992913677610762 0.17371344661054217 0.15397545894600437 1:4 2:6 3:1 4:1 5:3 6:4 7:4 8:4 9:3 10:1 11:6 12:7 14:2 15:3 16:6 17:5 18:9 19:9 20:9 21:1 
-0.27107528349950211 -0.12803081069421371 -0.28755132773135272 0.31565635721039131 0.31220047191234773 0.24839797718148729 0.22787944487228076 0.30802606054576104 0.27238703163195338 1:4 2:7 3:5 4:7 5:5 6:4 7:4 8:3 9:4 10:5 11:7 12:7 14:5 15:5 16:5 17:6 18:11 19:11 20:9 21:5 22:5 
-0.35490381889645695 -0.1635821885640148 -0.26843516144825558 0.41259205828691697 0.42592697197279777 0.32510718063577404 0.2861614827264401 0.39119257619373271 0.36487838820360702 1:5 2:5 3:3 4:3 5:5 6:7 7:7 8:5 9:3 10:3 11:5 12:7 13:2 14:2 15:5 16:5 17:8 18:8 19:12 20:8 21:8 
-0 -0 -0 0 0.027801376495982511 0 0 0 0 1:5 2:7 3:2 4:2 5:4 6:5 7:5 8:3 9:1 10:2 11:5 12:6 14:3 15:5 16:5 17:4 18:8 19:8 20:9 21:5 
-0.23609171408401289 -0.10961515462323614 -0.22965254807371902 0.27378443554974063 0.5637276404763385 0.21653065041783243 0.26402939614986148 0.25839607794906672 0.23217584345055253 1:6 2:6 3:1 4:1 5:3 6:4 7:4 8:3 9:1 10:1 11:3 12:3 14:2 15:2 16:4 17:4 18:8 19:8 20:8 
-0.4167234191694994 -0.19477979364877393 -0.37276768996342174 0.48556494241563902 0.45349368363229386 0.38020834834426182 0.38241677739191521 0.49397231452592771 0.41669307301740915 1:5 2:5 3:3 4:3 5:3 6:5 7:5 8:1 9:3 10:4 11:3 12:7 15:5 16:5 17:5 18:5 19:12 20:7 21:7 22:1 
-0.099933456967847042 -0.045773157658107182 -0.161548325867514 0.11798852413858736 0.13801443715176923 0.091403892588290694 0.11168884500384853 0.11013036360720217 0.096371096672485626 1:6 2:6 3:1 4:1 5:3 6:4 7:4 8:3 9:3 10:1 11:3 12:6 14:2 15:3 16:5 17:5 18:9 19:9 20:8 
-0.18403110677393542 -0.075600229437985597 -0.094620308240761147 0.21651012381355511 0.17895632256179311 0.17346077532146795 0.1424495977527673 0.20420864961395477 0.18726593556869192 1:4 2:6 3:1 4:1 5:4 6:4 7:4 8:3 9:3 10:1 11:3 12:6 15:2 16:5 17:6 18:9 19:9 20:9 
-0.30757208159386185 -0.15237853338865964 -0.33140568955373112 0.35840605969053357 0.29894392870347386 0.27747450262237633 0.26155427736195913 0.33533666817067098 0.30048355630169427 1:4 2:7 3:4 4:1 5:4 6:4 7:4 8:3 9:3 10:1 11:3 12:6 14:2 15:3 16:5 17:6 18:9 19:9 20:9 21:1 
-0.53437494892550685 -0.24756061329800008 -0.45802946108698123 0.62343760169308049 0.59181386690998006 0.48839981542753191 0.44767200057444628 0.58609067172768436 0.53398686254630268 1:4 2:6 3:5 4:5 5:5 6:4 7:4 8:5 9:5 10:5 11:7 12:7 14:2 15:3 16:5 17:5 18:12 19:12 20:9 21:7 22:7 
-0 -0 -0 0 0.04908425084967373 0 0 0 0 1:4 2:5 3:3 4:3 5:3 6:5 7:4 8:1 9:3 10:3 11:3 12:5 15:2 16:4 17:5 18:5 19:12 20:7 21:7 
-0.29199462622511191 -0.1368315194795765 -0.42129430135281459 0.3396066620899626 0.54464254898929487 0.26522168313583949 0.28625947248090133 0.31880501888787427 0.28942248752315708 1:7 2:7 3:3 4:3 5:4 6:5 7:5 8:3 9:3 10:3 11:3 12:7 13:2 14:2 15:5 16:6 17:6 18:6 19:12 20:7 21:7 
-0.23911807922235467 -0.11183528269830804 -0.17088885472787441 0.27912417813908308 0.29758600769082849 0.21878565102552316 0.19899535156715695 0.26694985937873117 0.24222231893493257 1:4 2:6 3:3 4:5 5:5 6:6 7:6 8:3 9:3 10:5 11:7 12:7 14:4 15:5 16:5 17:5 18:11 19:11 20:9 21:5 22:5 
-0.29083777163394431 -0.1348150772164271 -0.21319082450296345 0.33818423302043704 0.39103136752497608 0.26366154876606901 0.2245348761330471 0.31879516700071031 0.28768410145241891 1:4 2:7 3:1 4:1 5:3 6:5 7:4 8:3 9:3 10:1 11:5 12:6 14:3 15:3 16:4 17:5 18:9 19:9 20:10 
-0.25214090671091005 -0.12061620240003158 -0.33213721108288102 0.29497138040413173 0.31358753082273599 0.23162796709912153 0.26198032801468668 0.27703393759465017 0.24434343510948653 1:5 2:7 3:3 4:3 5:4 6:5 7:5 8:3 9:1 10:2 11:5 12:7 14:3 15:5 16:5 17:7 18:8 19:8 20:9 21:5 
-0.35935178769891513 -0.16757098050506627 -0.32536850130781886 0.41666390849515905 0.4003226397849024 0.32657703127591153 0.2996477824489685 0.39251293771093482 0.35876223373289928 1:5 2:6 3:5 4:5 5:5 6:4 7:4 8:3 9:3 10:5 11:5 12:6 15:2 16:5 17:5 18:12 19:12 20:10 21:5 22:5 
-0.29674071692536053 -0.14027974496009149 -0.24849042890101325 0.34634962412603204 0.3439959518764053 0.27223109101921816 0.24631324100720156 0.32477017831164084 0.29572532171435045 1:4 2:6 3:1 4:2 5:3 6:4 7:4 8:3 9:3 10:5 11:5 12:6 15:2 16:5 17:5 18:10 19:10 20:9 21:3 22:2 
-0.499442803159173 -0.23285101806964209 -0.45326959120029497 0.58183894796565971 0.53517618451970195 0.45570201815887645 0.4180399263138902 0.55047406344567484 0.49815826884346265 1:4 2:5 3:3 4:4 5:3 6:4 7:4 8:1 9:3 10:3 11:5 12:4 13:2 14:2 15:1 16:4 17:4 18:5 19:12 20:6 21:6 22:1 
-0.16247274840562093 -0.072473263679019559 -0.19022526183397109 0.18585099563241222 0.72864198918647738 0.17294017342687298 0.11150661345127025 0.18017085589124085 0.15328053043940895 1:5 2:7 3:3 4:2 5:4 6:6 7:5 8:3 9:3 10:2 11:5 12:7 14:5 15:5 16:5 17:5 18:9 19:9 20:9 21:5 
-0.16568162626331379 -0.085012488367714453 -0.12094887364384871 0.19374786642904002 0.18429158696180242 0.1525403500050691 0.13921783349102698 0.17958419560320837 0.16643024362362965 1:4 2:6 3:6 4:5 5:6 6:4 7:4 8:3 9:3 10:5 11:8 12:7 13:1 14:2 15:3 16:5 17:7 18:12 19:12 20:9 21:5 22:5 
-0.37538039089829728 -0.17751195039004838 -0.38220893509141429 0.43740960869135337 0.34952789157736786 0.33858693130458373 0.31238947854011034 0.40549013474607459 0.37225495173018747 1:5 2:7 3:5 4:4 5:4 6:5 7:5 8:3 9:4 10:4 11:6 12:7 13:1 14:4 15:5 16:5 17:5 18:12 19:12 20:9 21:6 
-0.10877297909654114 -0.051346551934460832 -0.075522910907683774 0.12811302415151737 0 0.099738024296201669 0.052443480712854998 0.11875153604159241 0.089113084263940157 1:5 2:5 3:1 4:2 5:4 6:5 7:6 8:3 9:1 10:2 11:4 12:3 15:4 16:4 17:4 18:8 19:8 20:9 21:4 
-0.086752889270428402 -0.034855180195974278 -0.07456644471828025 0.10161157068504321 0.16114413504978686 0.078144681185767756 0.071238914036990883 0.092286731861911386 0.083155598917320536 1:5 2:7 3:3 4:3 5:3 6:5 7:5 8:5 9:5 10:3 11:6 12:7 15:5 16:6 17:8 18:8 19:12 20:9 21:9 
-0.21067887875900726 -0.097872889896765222 -0.19540439593496309 0.24376187552455444 0.23729245716222822 0.19224679135874836 0.22287225317521661 0.22999884355868044 0.2249847206355835 1:5 2:5 3:2 4:1 5:1 6:5 7:5 8:3 9:1 10:1 11:3 12:3 15:4 16:4 17:4 18:7 19:7 20:8 21:1 
-0.41876262517417201 -0.19692879795162518 -0.36168228481562442 0.48646858465507697 0.50878502526235714 0.38421341400399567 0.34212272888291489 0.45596621257798325 0.41779310327233604 1:3 2:5 3:1 4:1 5:3 6:4 7:3 8:2 11:3 12:3 16:3 17:3 18:8 19:8 20:6 
-0.47937445198200551 -0.22506152904818152 -0.38361686300822379 0.55831011070602043 0.80786039991940684 0.43793712209986718 0.40367235222247305 0.52318176135990058 0.47995214585743262 1:7 2:7 3:4 4:3 5:3 6:5 7:5 8:5 9:3 10:3 11:5 12:7 15:5 16:6 17:7 18:7 19:12 20:10 21:10 
-0 -0 -0 0 0 0 0 0.0015537758900909689 0 1:4 2:5 3:4 4:3 5:3 6:5 7:5 8:1 9:3 10:3 11:3 12:4 14:1 15:3 16:4 17:4 18:5 19:12 20:7 21:7 
-0.091396524123072045 -0.040959331762783144 -0.062691444550709782 0.10989307107653393 0.1518273378822495 0.082525965748815294 0.01784626089505539 0.098699134134705588 0.087616493163788958 1:4 2:5 3:3 4:3 5:3 6:4 7:3 9:3 10:3 11:3 12:1 15:1 16:3 17:4 18:4 19:11 20:6 21:6 
-0.25441275287819981 -0.12532005600484092 -0.20817386684028036 0.29580764488471012 0.21215951663336036 0.2299092429760512 0.20986200947034517 0.27475759624597573 0.25142416769967546 1:4 2:6 3:1 4:3 5:4 6:4 7:4 8:3 9:3 10:3 11:6 12:7 14:2 15:3 16:5 17:5 18:11 19:11 20:9 21:2 
-0.64247637791081158 -0.30119582664355815 -0.57054300211536502 0.74800709751237582 0.69946105924883506 0.59135700907535438 0.5344109269337276 0.7121073582715769 0.6541523118355258 1:5 2:7 3:3 4:4 5:3 6:5 7:5 8:6 9:3 10:3 11:7 12:9 13:3 14:3 15:5 16:5 17:7 18:7 19:12 20:9 21:9 
-0.062358909735813005 -0.029866311272754392 -0.034907058011012924 0.073815977094628796 0 0.057349309311285672 0.0023878055204221045 0.0088735898625029678 0.056180575406762162 1:5 2:5 3:3 4:3 5:3 6:5 7:5 8:1 9:3 10:3 11:3 12:7 15:5 16:5 17:5 18:5 19:12 20:7 21:7 
-0.040226459352314309 -0.018011644578367552 -0.04156157606231016 0.045909533955032555 0.29763055650584475 0.036222304476471331 0.033859597029327906 0.075691990675308199 0.041508799954048159 1:5 2:5 3:3 4:3 5:3 6:5 7:5 8:2 9:3 10:3 11:3 12:7 15:6 16:5 17:5 18:5 19:12 20:7 21:7 
-0.39610421939555984 -0.19041507804207897 -0.32264397808712109 0.46318016461685668 0.40626258568372697 0.36275376523662012 0.31340412067304707 0.43366210329743149 0.39522827119909071 1:3 2:4 3:3 4:3 5:3 6:5 7:4 8:3 9:3 10:3 11:3 12:2 15:1 16:3 17:5 18:6 19:12 20:6 21:6 
-0.19750436880147787 -0.086795474304815975 -0.12994880185345956 0.23241911643185265 0.22388127440469224 0.18323754466372683 0.15538319849269885 0.21886684577004384 0.19950768217982423 1:5 2:6 3:5 4:3 5:5 6:4 7:4 8:3 9:3 10:5 11:5 12:6 15:2 16:5 17:5 18:11 19:11 20:10 21:5 22:5 
-0.15855058032089714 -0.065999138364588567 -0.13055520375621946 -0.15087466810468367 0.17485980659040917 0.14274010384362243 0.1279852199962653 0.17101090813562231 0.15749768848963344 1:3 2:3 3:5 4:4 5:6 6:6 7:4 8:5 9:10 10:10 11:3 12:3 13:4 14:4 15:4 16:5 17:3 18:3 19:12 20:12 21:12 22:3 
-0.44812426618104595 -0.18725819922730383 -0.36790118083380291 -0.42608830992387386 0.49152503708793577 0.4022635576377559 0.36083922548818292 0.49941971221375159 0.44492528629055017 1:3 2:5 3:6 4:5 5:5 6:8 7:5 8:8 9:10 10:10 11:3 12:4 13:3 14:5 15:5 16:5 17:5 18:6 19:7 20:12 21:12 22:12 
-0.3658409460099738 -0.15196601353699402 -0.29980035936978316 -0.34623548080875699 0.40192327969223357 0.33062567323488401 0.29332204770936371 0.40727766791346476 0.36243946804623983 1:1 2:4 3:4 4:2 5:3 6:4 7:5 8:6 9:9 10:10 11:1 12:1 13:3 14:4 15:4 16:4 17:4 18:4 19:4 20:12 21:6 22:5 
-0.083357365212246681 -0.033262425498788224 -0.065409506654531907 -0.075235993777683641 0.087756342015159333 0.072070172891457299 0.064006135298559072 0.08864837574897412 0.07906446931176575 1:3 2:3 3:6 4:5 5:5 6:4 7:5 8:4 9:9 10:10 11:5 12:3 13:3 14:4 15:4 16:4 17:5 18:5 19:5 20:12 21:10 22:10 
-0.21155029307865522 -0.086149424052634316 -0.16959255598167947 -0.196360741477179 0.22730847269506588 0.18851719355843041 0.1659742933650955 0.25335751777412457 0.20896756294681659 1:3 2:5 3:5 4:5 5:5 6:5 7:5 8:7 9:10 10:10 11:5 12:4 13:3 14:5 15:6 16:6 17:6 18:7 19:7 20:12 21:12 22:5 
-0.15553640800703786 -0.064778805348138374 -0.12745380494535882 -0.14691062119567094 0.17015666696145976 0.13878027973103788 0.12488390578987035 0.17814914335046553 0.15398225757569761 1:3 2:3 3:6 4:4 5:6 6:4 7:4 8:5 9:8 10:10 11:6 12:3 13:4 14:4 15:4 16:5 17:3 18:3 19:12 20:12 21:12 22:3 
-0.11244881598337279 -0.046971110879896541 -0.091874239571187746 -0.10724262156894447 0.12321357942527264 0.1006575488272789 0.090158154810765681 0.13616601260255465 0.11070070997587746 1:3 2:3 3:5 4:5 5:4 6:5 7:4 8:5 9:10 10:10 11:4 12:3 13:3 14:3 15:6 16:5 17:3 18:3 19:12 20:12 21:12 22:2 
-0.047484964070245224 -0.01948835983766176 -0.039804787585493009 -0.045274643279253957 0.052671865013600133 0.042678020024694265 0.038075392437607283 0.048410327230628394 0.047787638419719392 1:3 2:5 3:5 4:5 5:4 6:4 7:4 8:6 9:9 10:10 11:3 12:3 13:3 14:3 15:5 16:3 17:4 18:4 19:12 20:12 21:12 22:3 
-0.34294254595047929 -0.14350071190771152 -0.28225422748383772 -0.32777464556662239 0.3779355208563816 0.30869332243812664 0.27727522353504536 0.38354252869762101 0.34188953331874183 1:3 2:5 3:6 4:4 5:5 6:4 7:5 8:4 9:10 10:10 11:3 12:3 13:3 14:4 15:4 16:4 17:5 18:4 19:4 20:12 21:11 22:11 
-0.40438629982529822 -0.1678627326984026 -0.33127691562870865 -0.38054813681600852 0.44152999498659296 0.36209935758304662 0.3262231365562438 0.44985058589223209 0.4046964984328501 2:1 3:3 4:1 5:1 6:1 7:1 8:1 9:3 10:4 11:1 18:1 19:2 20:10 21:2 22:2 
-0.16395602435025972 -0.067431154770777837 -0.1358132353905746 -0.15655358177888867 0.18061173696555083 0.14747973663841019 0.13198317882587021 0.18374372071960787 0.16356677938375938 1:6 2:5 3:6 4:7 5:7 6:9 7:7 8:8 9:10 10:10 11:6 12:5 13:4 14:5 15:5 16:6 17:6 18:12 19:12 20:12 21:12 22:12 
-0.32578144205805193 -0.135825654531498 -0.26707042064245906 -0.30948677254003826 0.35822508834281364 0.29183295165542122 0.26243518925225456 0.36439771516001557 0.3232611440884664 1:4 2:4 3:6 4:6 5:6 6:5 7:6 8:5 9:10 10:10 11:5 12:3 13:5 14:5 15:4 16:6 17:5 18:5 19:12 20:12 21:12 22:4 
-0.31879571029513892 -0.13282000816359851 -0.26221386629819449 -0.30371664639245882 0.35109645151400642 0.2861950808600372 0.25760761579271768 0.35597190129577067 0.31801011837313253 1:1 2:3 3:6 4:4 5:3 6:2 7:2 8:1 9:8 10:10 11:1 13:2 14:2 15:3 16:3 17:4 18:4 19:4 20:11 21:4 22:4 
-0.61754117167592937 -0.25617847948685213 -0.5047451787408842 -0.58725370656805975 0.67646699747985062 0.55131709856085265 0.49464510296663067 0.68634193116643194 0.61189282393454769 2:2 3:5 4:2 5:2 6:3 7:2 8:3 9:3 10:5 11:1 12:2 14:3 15:1 16:1 17:4 18:2 19:2 20:11 21:5 22:1 
-0.24277580662842399 -0.1015205260542366 -0.19892949350022066 -0.23081337545557951 0.26678873343819393 0.216949501677863 0.19501966812671445 0.27302558786088754 0.24155114145981441 1:1 2:3 3:4 4:3 5:5 6:4 7:3 8:2 9:9 10:10 11:3 12:1 13:3 14:3 15:3 16:5 17:4 18:4 19:4 20:12 21:5 22:5 
-0.050796091073196221 -0.020724807980222772 -0.040158555834893556 -0.048059844740480653 0.055840609353066395 0.048522919307512964 0.041422261629818075 0.060613437009100518 0.051394391120720397 1:1 2:3 3:4 4:3 5:3 6:4 7:4 8:4 9:8 10:10 11:1 12:1 13:3 14:4 15:4 16:4 17:4 18:5 19:5 20:12 21:3 22:2 
-0.60631662532919706 -0.2526977243297871 -0.49874663858593454 -0.58504884654141665 0.67782948908826968 0.54452907652957261 0.49371512122047578 0.67934144951493702 0.60604747141450854 2:1 3:3 4:1 5:1 6:1 7:2 8:4 9:3 10:1 11:1 13:1 14:1 18:3 19:3 20:10 
-0.35041769480071067 -0.14643488256516776 -0.28813555329053858 -0.33344656182863003 0.38585625936017481 0.31368981932043677 0.28170199857627182 0.38855239125576585 0.34801328693337796 1:2 2:4 3:5 4:7 5:5 6:5 7:3 8:6 9:10 10:10 11:4 12:4 13:3 14:5 15:5 16:5 17:5 18:8 19:8 20:12 21:12 22:2 
-0.015568077478286937 -0.0073526514216924405 -0.014088155268449011 -0.017270411178653057 0.019330752473953904 0.016449418108757771 0.014541423713369216 0.014464420283954406 0.018921498217117944 1:3 2:3 3:5 4:4 5:4 6:4 7:5 8:5 9:7 10:10 11:3 12:3 13:3 14:3 15:4 16:3 17:2 18:2 19:12 20:12 21:12 22:3 
-0.19323961235107479 -0.080701804124576448 -0.15900544049713269 -0.18215305247498662 0.21196458567184015 0.17317984773833808 0.15478191255742263 0.21258568723613586 0.19191374602343109 1:2 2:5 3:5 4:5 5:6 6:4 7:3 8:4 9:10 10:10 11:2 12:2 13:3 14:5 15:5 16:5 17:6 18:4 19:4 20:12 21:12 22:2 
-0.27558868879621456 -0.11590830612460208 -0.22717505497458804 -0.26321830851606859 0.3040000680870647 0.24831821238566998 0.22300168591857092 0.30660606786272809 0.27479605127501222 1:3 2:3 3:5 4:4 5:4 6:5 7:6 8:7 9:10 10:10 11:3 12:3 13:3 14:3 15:4 16:5 17:5 18:5 19:12 20:12 21:12 22:2 
-0.2801988387386935 -0.11605442576731262 -0.22731895694220808 -0.26341494016009881 0.30433950227873197 0.24868671127156056 0.22304271690136665 0.31654954288292853 0.27638676455658412 1:2 2:4 3:5 4:6 5:3 6:4 7:3 8:3 9:7 10:9 11:4 12:2 13:1 14:4 15:3 16:4 17:5 18:5 19:5 20:12 21:12 22:1 
-0.31273153434497225 -0.12965383965734895 -0.25546748624579391 -0.29546286304209046 0.34162496474414034 0.28290892816574398 0.25035157872379238 0.34995224370843986 0.30933750401447985 1:1 2:3 3:4 4:2 5:3 6:3 7:4 8:2 9:8 10:10 11:3 12:3 13:4 14:4 15:4 16:2 17:4 18:4 19:4 20:12 21:4 22:4 
-0.43986043010068343 -0.18187395761907049 -0.36013679000704174 -0.4137053242219631 0.48089928668592508 0.39463244872982883 0.35416269091178404 0.48909583464372369 0.4371808407471558 1:3 2:3 3:6 4:4 5:4 6:4 7:4 8:5 9:5 10:4 11:3 12:3 13:2 14:2 15:2 16:2 17:1 18:1 19:12 20:12 21:12 22:2 
-0.26232179855124349 -0.10955728296217364 -0.21541654722067424 -0.25005301265954327 0.28852574615998283 0.23573086050616185 0.21139325896020067 0.29232099187131172 0.26134552540451877 1:1 2:5 3:6 4:7 5:7 6:9 7:7 8:8 9:10 10:10 11:5 12:5 13:4 14:5 15:5 16:5 17:5 18:11 19:11 20:12 21:11 22:11 
-0.021281146210237755 -0.0088201416329815058 -0.01802475434180504 -0.021180195573801061 0.021899804427815393 0.019903703975817803 0.016391020360375687 0.023882489328034728 0.020875448039445545 1:1 2:3 3:5 4:1 5:2 6:1 7:2 8:2 9:7 10:6 11:1 13:2 14:2 17:2 18:4 19:4 20:11 21:4 22:2 
-0.1200597379439131 -0.049333424433022945 -0.098458457234575553 -0.11308612074369961 0.13271967950238728 0.1094461631228538 0.097044190720077111 0.12901407124863445 0.1206726746888775 1:2 2:4 3:5 4:3 5:3 6:4 7:2 8:3 9:5 10:9 11:2 12:2 14:4 15:2 16:2 17:4 18:4 19:4 20:12 21:11 22:1 
-0.28298954881246502 -0.11866425157343376 -0.2321605055786434 -0.26980917507433416 0.31075398602550913 0.25444749230044023 0.22796538134877506 0.31538304504069231 0.28089013213207964 1:2 2:4 3:5 4:3 5:3 6:4 7:3 8:5 9:8 10:10 11:2 12:2 13:3 14:4 15:2 16:2 17:6 18:4 19:4 20:12 21:12 22:2 
-0.31000610493102315 -0.13003543759362707 -0.25469471685390299 -0.29562728286640905 0.34275997250276741 0.27854440210828629 0.25040278440006503 0.34807903925632933 0.30832647793538492 1:1 2:3 3:6 4:5 5:5 6:2 7:3 8:6 9:9 10:10 11:3 12:3 13:3 14:4 15:4 16:4 17:5 18:4 19:4 20:12 21:8 22:8 
-0.32331647647550577 -0.13504216163572932 -0.26537712768109917 -0.30674096429458991 0.35555850884529383 0.29039051765079127 0.26092652857357257 0.3788746371465771 0.32198202335883686 1:3 2:3 3:5 4:4 5:6 6:4 7:4 8:6 9:6 10:10 11:4 12:3 13:3 14:3 15:6 16:3 17:3 18:3 19:12 20:12 21:12 22:1 
-0.17346657927038106 -0.071991249849088071 -0.14126001168412661 -0.16193398745223234 0.18818090086723599 0.15382812154954803 0.13806788636922959 0.19184365108797385 0.16947575730557241 1:3 2:3 3:5 4:4 5:4 6:4 7:4 8:5 9:7 10:10 11:3 12:4 13:3 14:3 15:4 16:3 17:2 18:2 19:12 20:12 21:12 22:3 
-0.070684261918257427 -0.031910586537580138 -0.061875123357522377 -0.070578070824360753 0.082590533135895719 0.0671037673324439 0.061143178963918146 0.080434897999960481 0.073668353366894118 1:1 2:4 3:5 4:3 5:3 6:4 7:2 8:2 9:6 10:9 11:2 12:1 13:1 14:2 15:2 16:2 17:4 18:4 19:4 20:12 21:10 22:1 
-0.15954999892102628 -0.066824405690930247 -0.1321403799419486 -0.15199887472109994 0.17627429344403459 0.14275888382665325 0.12854030810395298 0.18028496447452935 0.15832188427308611 1:1 2:3 3:4 4:3 5:2 6:2 7:3 8:2 9:8 10:9 11:3 12:1 13:2 14:3 15:3 16:4 17:5 18:4 19:4 20:12 21:2 22:2 
-0.40902021807941219 -0.17126006580566902 -0.33617537897881755 -0.39004862632741832 0.45218280841538067 0.36749148022739908 0.33017356759725308 0.4567743136481488 0.40722578458472564 1:3 2:3 3:4 4:2 5:1 6:1 7:2 8:4 9:8 10:5 11:1 13:2 14:2 15:1 17:2 18:5 19:5 20:11 21:3 22:3 
-0.16599045504117935 -0.070094600910672586 -0.13781968671128539 -0.15936071400307208 0.18240968383224346 0.14928380398440955 0.13494886592202165 0.18455759544698563 0.16653054168930004 1:1 2:4 3:4 4:3 5:3 6:2 7:3 8:4 9:9 10:10 11:1 12:1 13:3 14:4 15:4 16:5 17:4 18:4 19:4 20:12 21:3 22:2 
-0.16139874077282007 -0.067727586685065538 -0.13278623394183639 -0.15419596328505977 0.17811253459792586 0.14560364614500382 0.13074404434095035 0.18227674188063489 0.16108755027073127 1:3 2:3 3:5 4:6 5:6 6:5 7:4 8:5 9:10 10:10 11:5 12:3 13:3 14:3 15:4 16:5 17:6 18:6 19:12 20:12 21:12 22:2 
-0.33881399811731455 -0.1429592961324514 -0.2776859331599103 -0.32211681821717025 0.37352501998819887 0.30461354002822022 0.27281328964270557 0.37769050882784383 0.33652809922554433 1:6 2:5 3:6 4:7 5:7 6:8 7:8 8:8 9:10 10:10 11:5 12:5 13:3 14:5 15:5 16:5 17:7 18:12 19:12 20:12 21:12 22:12 
-0.1700720061890908 -0.070516632743158558 -0.14005576530551225 -0.16160886268415939 0.18751227231089942 0.15128143815070272 0.13604729301394619 0.18945910012953768 0.16739223123330305 1:1 2:3 3:4 4:4 5:3 6:2 7:3 8:4 9:8 10:10 11:1 13:3 14:4 15:4 16:3 17:4 18:5 19:5 20:11 21:2 22:2 
-0.071364623480490247 -0.027602915953058905 -0.055534541363591081 -0.064359524467103052 0.074855764887185552 0.061251222791532868 0.055280876285280681 0.080605051232630578 0.067036943794609963 1:2 2:4 3:5 4:5 5:5 6:4 7:3 8:4 9:10 10:10 11:4 12:2 13:3 14:4 15:6 16:6 17:5 18:4 19:4 20:12 21:12 22:2 
-0.22534872981269555 -0.094210435663262537 -0.18594949824352919 -0.21616194275022577 0.24903856957212558 0.20322899171846892 0.1831561014874398 0.24918717043017452 0.22421012002105295 1:4 2:4 3:5 4:7 5:7 6:4 7:3 8:4 9:10 10:10 11:4 12:2 13:3 14:4 15:5 16:5 17:6 18:7 19:7 20:12 21:12 22:3 
-0.18009977315067466 -0.075471881306761399 -0.14848019604667131 -0.17153310972353103 0.19886097808675643 0.16202853402311246 0.14565970975560968 0.20161390233185472 0.17888032241146604 1:1 2:5 3:6 4:4 5:5 6:4 7:5 8:6 9:10 10:10 11:3 12:3 13:3 14:4 15:4 16:4 17:5 18:4 19:4 20:12 21:11 22:11 
-0.25721913777615596 -0.10763130879408292 -0.21226428489938204 -0.24543928933513182 0.28385473813413847 0.23089394319953452 0.20794647972971797 0.28842422210549079 0.25515122657491962 1:1 2:5 3:6 4:7 5:5 6:6 7:7 8:8 9:10 10:10 11:5 12:5 13:3 14:4 15:4 16:5 17:5 18:10 19:10 20:12 21:11 22:11 
-0.15988823791107068 -0.065143452699555432 -0.12928027512465998 -0.15005152834414145 0.17343283005429375 0.14162605083456381 0.12635150998542619 0.17823083853657992 0.15664501294736907 1:2 2:4 3:5 4:3 5:5 6:4 7:3 8:4 9:6 10:9 11:2 12:2 13:2 14:4 15:2 16:2 17:4 18:5 19:5 20:12 21:12 22:1 
-0.35440551772056461 -0.14775958527126709 -0.29218009821281121 -0.33828333099062285 0.39129642363134765 0.31883225200356324 0.28655394488643066 0.39616500533745391 0.3534515403778104 1:5 2:4 3:5 4:3 5:3 6:4 7:3 8:3 9:9 10:9 11:2 12:2 13:1 14:4 15:3 16:3 17:5 18:5 19:5 20:12 21:12 22:2 
-0.14485201402341696 -0.059977628228947602 -0.11941057951215124 -0.13783082541158392 0.15936082468879434 0.13060134972022708 0.11659686039004226 0.16427546668091192 0.14515004521590616 1:3 2:3 3:7 4:6 5:6 6:5 7:6 8:5 9:10 10:10 11:3 12:3 13:4 14:4 15:5 16:6 17:5 18:5 19:12 20:12 21:12 22:2 
-0.30724691081297223 -0.1286332690183965 -0.2536865715824182 -0.29344950502963407 0.33948024493965528 0.276421957726045 0.24880689561254818 0.34422266918284972 0.30649103909185238 1:3 2:5 3:6 4:7 5:7 6:4 7:5 8:6 9:10 10:10 11:5 12:3 13:3 14:4 15:4 16:5 17:5 18:7 19:7 20:12 21:12 22:12 
-0.012057272973774746 -0.005818211840437312 -0.011909374460056667 -0.013396662922968377 0.016751485179697712 0.012340161166185389 0.011590932608035009 0.014252452847999034 0.014450580560736274 1:2 2:4 3:5 4:4 5:3 6:5 7:5 8:4 9:10 10:10 11:2 12:2 13:3 14:4 15:3 16:4 17:6 18:5 19:5 20:12 21:12 22:2 
-0.18198290218018406 -0.071796012841661788 -0.14287438576871625 -0.16530032020149316 0.19025851498124963 0.1568292353189121 0.14050227703863036 0.19488122189664286 0.17605376370146933 1:1 2:3 3:4 4:5 5:5 6:4 7:5 8:6 9:9 10:10 11:3 12:1 13:3 14:4 15:4 16:4 17:5 18:4 19:4 20:12 21:8 22:8 
-0.39433200276407038 -0.16421764092959265 -0.32319446992034584 -0.37376728286045402 0.43294960815825401 0.35341988066740759 0.31645736112170053 0.45069702825869679 0.39185891029402597 1:4 2:4 3:7 4:6 5:5 6:4 7:5 8:4 9:10 10:10 11:5 12:2 13:3 14:4 15:7 16:7 17:5 18:6 19:6 20:12 21:12 22:4 
-0.22383654080914497 -0.093017836157821721 -0.18338283995631549 -0.21370461486132145 0.24551601061119024 0.20124110830962982 0.18040274354695557 0.24981181980250852 0.22315228891711059 1:1 2:3 3:4 4:2 5:1 6:2 7:4 8:2 9:7 10:6 11:3 12:1 13:3 14:2 15:1 16:2 17:2 18:4 19:4 20:12 21:3 22:3 
-0.37903237246102506 -0.15817589766521081 -0.31087262870385857 -0.35998269601024019 0.41698141329404403 0.34009752273166843 0.30583076267384174 0.42236058098533097 0.37709568674530247 1:1 2:3 3:4 4:2 5:5 6:1 7:2 8:2 9:8 10:10 11:1 13:3 14:3 15:2 16:2 17:4 18:5 19:5 20:11 21:2 22:2 
-0.33054598626491888 -0.13903401815620572 -0.27342515158263386 -0.31661221750982171 0.36556734528074253 0.29847611165116111 0.26793477229088014 0.37264346084892824 0.3299485371782967 1:1 2:3 3:6 4:4 5:5 6:4 7:3 8:6 9:10 10:10 11:3 12:1 13:3 14:4 15:4 16:4 17:5 18:6 19:6 20:12 21:6 22:6 
-0.16695892170654636 -0.069710004647412879 -0.1369475004181733 -0.1588499634110665 0.18298500115682181 0.15021204881477665 0.13438809831202064 0.18618531640608962 0.16531904311046125 1:1 2:5 3:6 4:7 5:7 6:4 7:5 8:6 9:10 10:10 11:5 12:3 13:3 14:4 15:4 16:5 17:5 18:8 19:8 20:12 21:10 22:10 
-0.17207320285570499 -0.071808473375730444 -0.14129478181694258 -0.16339421721993452 0.18867336014069289 0.15313928917092229 0.13817941173134698 0.19210186489442346 0.17243578251974906 1:1 2:5 3:6 4:5 5:5 6:4 7:6 8:4 9:9 10:10 11:3 12:4 13:3 14:4 15:4 16:4 17:5 18:5 19:7 20:12 21:9 22:9 
-0.41985303103376753 -0.17530055390434385 -0.34470337543657303 -0.39877532900162782 0.4620547213506177 0.37740069072433258 0.33841044460671543 0.47461707765967437 0.42282835372259187 1:3 2:5 3:6 4:8 5:7 6:8 7:7 8:8 9:10 10:10 11:8 12:5 13:4 14:6 15:7 16:5 17:5 18:11 19:11 20:12 21:12 22:12 
-0.59480681260101187 -0.24750485075926809 -0.48787905255769387 -0.56482685806838151 0.65373951799847096 0.53320951163189478 0.47866171653705675 0.66126917278665975 0.59047252742582712 1:1 2:4 3:5 4:3 5:2 6:2 7:2 8:2 9:3 10:5 11:2 12:2 14:1 15:1 17:2 18:2 19:3 20:12 21:11 22:1 
-0.15024997441004412 -0.060732007780899835 -0.11937983856809568 -0.13891951334524388 0.15886210139690071 0.12869041019955266 0.11619682337804042 0.16957840737923424 0.14428100346231609 1:1 2:4 3:5 4:3 5:3 6:4 7:3 8:2 9:6 10:9 11:2 12:3 13:1 14:4 15:2 16:2 17:4 18:4 19:5 20:12 21:10 22:1 
-0.49985251574496686 -0.2083938129407448 -0.41045037793318212 -0.47509465521109845 0.55021405405612545 0.44908841071095695 0.40256534434555585 0.55962035923099474 0.50080277543546048 1:5 2:5 3:6 4:5 5:7 6:8 7:7 8:4 9:10 10:10 11:3 12:4 13:3 14:5 15:5 16:5 17:5 18:8 19:9 20:12 21:11 22:11 
-0.5021863244564283 -0.20916416756647935 -0.41242977306510886 -0.48176640432863038 0.55332971206992443 0.45025906004714261 0.40418106748558436 0.57319588239580455 0.49917433587813564 1:1 2:3 3:5 4:3 5:3 6:4 7:2 8:2 9:3 10:7 11:4 12:2 15:2 16:2 17:4 18:4 19:4 20:12 21:10 22:1 
-0.37736855945853531 -0.15711155275649222 -0.3098672766545853 -0.36116200175872248 0.41550753389356254 0.3384780652521498 0.30360328330115904 0.4257172702010969 0.37475504809148508 1:3 2:5 3:5 4:4 5:4 6:4 7:4 8:5 9:5 10:10 11:4 12:3 13:3 14:3 15:3 16:4 17:3 18:3 19:12 20:12 21:12 22:1 
-0.16684543278213987 -0.068836940903010374 -0.13625964964653375 -0.15800481226250845 0.18283699270947112 0.14940617434748799 0.13390127175736319 0.18371901287216238 0.16487410695466378 1:2 2:4 3:5 4:3 5:5 6:5 7:5 8:6 9:10 10:10 11:2 12:2 13:3 14:5 15:5 16:5 17:5 18:5 19:5 20:12 21:12 22:2 
-0.18324803147081911 -0.076823225629119751 -0.14898684460957901 -0.17391156567433183 0.19920391468124074 0.16318059964393833 0.14649082022760129 0.2027969708111183 0.18113124534582539 1:2 2:4 3:5 4:5 5:5 6:4 7:5 8:4 9:10 10:10 11:2 12:2 13:3 14:4 15:6 16:6 17:5 18:4 19:4 20:12 21:12 22:2 
-0.065944480145729498 -0.026465872595986623 -0.052238187368043372 -0.060625611682549436 0.071144519051863295 0.05777921827836336 0.051351519029189323 0.071506772803963031 0.065277408908990697 1:1 2:5 3:6 4:5 5:5 6:6 7:7 8:8 9:10 10:10 11:5 12:3 13:3 14:5 15:5 16:5 17:5 18:7 19:7 20:12 21:11 22:11 
-0.28439444531196095 -0.11931049504936075 -0.2347598107373807 -0.27642494681419982 0.31765260599465367 0.25546268500323843 0.23612986875633957 0.32063450116796682 0.28761275085941368 2:1 3:3 4:1 5:1 6:1 7:1 8:1 9:2 10:4 11:1 17:1 18:2 19:2 20:10 21:1 
-0.23205704877635333 -0.096269347616865772 -0.19031382061861024 -0.22069365722335696 0.25408138429962818 0.20771009498501847 0.18667029506573557 0.26051878722875699 0.23154351455485236 1:5 2:5 3:6 4:7 5:9 6:8 7:7 8:8 9:10 10:10 11:5 12:5 13:3 14:6 15:6 16:5 17:5 18:12 19:12 20:12 21:12 22:12 
-0.38224001137929198 -0.15956848557087852 -0.31465695647962311 -0.36364728265866886 0.42118071533047702 0.34256097864025165 0.309274004494272 0.42755142663822809 0.37961932187625907 1:1 2:3 3:4 4:2 5:1 7:1 8:2 9:8 10:5 11:1 13:2 14:2 15:1 16:1 17:1 18:4 19:4 20:9 21:2 22:2 
-0.56436757275108318 -0.23581919103985688 -0.46447068320246987 -0.5391940341257182 0.62295014710030194 0.50773113161078054 0.45552846254424395 0.62988892200969071 0.56182904790811283 1:3 2:3 3:5 4:4 5:3 6:3 7:3 8:4 9:5 10:3 11:3 12:3 13:2 14:2 16:1 17:1 18:1 19:11 20:12 21:12 
-0.37159736003612875 -0.15516769204079953 -0.3054079370794498 -0.35387656193453765 0.40836755760435939 0.33394816036854003 0.29959212401368029 0.41652846631497409 0.37025746827824269 1:1 2:4 3:4 4:5 5:5 6:6 7:7 8:6 9:10 10:10 11:6 12:5 13:4 14:4 15:4 16:5 17:5 18:8 19:8 20:12 21:10 22:9 
-0.049893724589984534 -0.022036835368704308 -0.04158261725711352 -0.055170613286351443 0.05794471157040721 0.04426031151029549 0.039309618557643033 0.062104853861631747 0.049200123469013139 1:3 2:3 3:5 4:4 5:4 6:4 7:4 8:5 9:5 10:5 11:3 12:3 13:2 14:2 15:2 16:2 17:1 18:2 19:12 20:12 21:12 22:1 
-0.34202772158747585 -0.14302595508316418 -0.28133895133383513 -0.32501308649166349 0.38016931031555123 0.30704392730924929 0.27564123333950774 0.38219812194064157 0.33997408261159701 1:1 2:3 3:4 4:1 5:1 6:3 7:3 8:1 9:7 10:6 11:1 12:1 13:2 14:3 15:2 17:1 18:4 19:4 20:12 21:2 22:2 
-0.32695931611359152 -0.13066176325614662 -0.3680346330266695 -0.40916448645190057 -0.35810989052999742 0.29539704308489506 0.29652577978408934 0.34957180674497063 0.42989357297809888 1:7 2:8 3:3 4:3 5:4 6:3 7:4 8:2 9:1 10:2 11:4 12:3 14:5 15:5 16:5 17:3 18:6 19:6 20:9 21:5 
-0.078852067379019813 -0.035610854373804179 -0.016682829351112632 -0.11268414397114587 -0.097446797769391608 0.07611679892068926 0.036413514118162578 0.10192548758670628 0.095263369005373674 1:7 2:7 3:2 4:2 5:4 6:6 7:4 8:1 9:1 10:1 11:3 12:5 14:6 15:7 16:6 17:3 18:6 19:6 20:9 
-0.28272507986486872 -0.12265108566142727 -0.23610037085168312 -0.26760629729309232 -0.33776548174888954 0.2519316550830224 0.224676873656869 0.31263311937635851 0.2800598271838281 1:9 2:9 3:2 4:2 5:6 6:7 7:5 8:5 9:3 10:5 11:5 12:8 14:6 15:7 16:5 17:5 18:9 19:9 20:9 21:8 22:8 
-0.052272972935545767 -0.017627013717692791 -0.038334234224771835 -0.036025647653400203 -0.059501752324215909 0.050885165165337171 0.039497924347400931 0.05532708357339771 0.059835432371046972 1:9 2:9 3:2 4:3 5:4 6:9 7:5 8:5 9:5 10:5 11:7 12:7 13:1 14:8 15:8 16:5 17:5 18:9 19:9 20:9 21:8 22:8 
-0.254754125980174 -0.1114096559335926 -0.19480323838213348 -0.178780618222943 -0.30659465523244844 0.21854227029338702 0.21063960189812045 0.27572282826622924 0.23507441504009871 1:9 2:9 3:2 4:2 5:4 6:7 7:5 8:5 9:3 10:5 11:3 12:6 14:6 15:7 16:5 17:5 18:8 19:8 20:9 21:6 22:6 
-0.37328190302445036 -0.16207582752658359 -0.31637292187709082 -0.31942048783020766 -0.44664739673297293 0.33962794586177797 0.30506532382763213 0.42346580159337394 0.36697502031302687 1:7 2:7 3:2 4:3 5:3 6:6 7:3 8:1 9:1 10:1 11:5 12:6 13:1 14:8 15:8 16:5 17:2 18:6 19:6 20:9 
-0 -0 -0.051489364823988699 -0.25724006528155613 -0 0 0.052404379844124348 0 0 1:7 2:7 3:2 4:1 5:4 6:3 7:4 8:1 9:2 10:1 11:4 12:3 14:5 15:3 16:3 17:4 18:6 19:6 20:9 21:3 
-0.41227823316004697 -0.17879484273608778 -0.32837149475803534 -0.39504660634144201 -0.49227135325223637 0.38786724397335037 0.32082720395316894 0.48576585790539023 0.4119679151523869 1:7 2:8 3:2 4:2 5:5 6:7 7:6 8:1 9:3 10:5 11:7 12:7 14:8 15:8 16:6 17:5 18:7 19:7 20:10 21:5 22:4 
-0.36518631234581678 -0.15932758705730007 -0.29899716180422597 -0.4411892940564569 -0.43685891866515325 0.32982224203850324 0.30419357449351175 0.40537583401785204 0.36134927182398607 1:7 2:8 3:1 4:1 5:4 6:7 7:5 8:5 9:3 10:3 11:6 12:7 15:8 16:5 17:8 18:8 19:9 20:9 21:9 22:1 
-0.20015340088845357 -0.083580235866847263 -0.11690946221238657 -0.16419501716736976 -0.22905450671804314 0.17189694661591523 0.19424397678086083 0.21098002945797714 0.21177920121670055 1:8 2:8 3:1 4:1 5:4 6:5 7:4 8:2 9:2 10:2 11:4 12:4 14:6 15:3 16:3 17:5 18:6 19:6 20:9 21:7 
-0.053374369881336058 -0.024065125728858282 -0.038222471802973668 -0.025874440291715067 -0.067465034276779565 0.02685469080056686 0.042851236394636227 0.034363882443704606 0.045069338446763467 1:9 2:9 3:2 4:2 5:4 6:7 7:4 8:3 9:1 10:5 11:7 12:7 14:8 15:8 16:5 17:5 18:8 19:8 20:9 21:5 22:4 
-0.020342952972510223 -0 -0 -0 -0 0.0071985191858377848 0 0 0.01172720203145885 1:8 2:8 3:1 4:1 5:4 6:6 7:4 8:2 9:2 10:2 11:5 12:6 14:8 15:5 16:5 17:3 18:6 19:6 20:9 21:7 
-0.036017810490496981 -0.018077861660342733 -0.035600258215200124 -0.077983389214722712 -0.048014009305682129 0.024382779440864484 0.035299110017709474 0.041469620867122317 0.036866919494984489 1:8 2:9 3:1 4:3 5:6 6:7 7:5 8:2 9:2 10:2 11:5 12:7 13:1 14:9 15:5 16:5 17:5 18:8 19:8 20:9 21:7 
-0.31178682494506726 -0.13514641327508309 -0.24589530441804111 -0.25844853924429861 -0.36891947391022439 0.29068102940314383 0.24102831093940538 0.35032974310538567 0.30627036510305056 1:7 2:8 3:2 4:2 5:4 6:8 7:3 8:2 9:1 10:3 11:7 12:6 13:1 14:8 15:8 16:4 17:5 18:6 19:6 20:9 21:4 22:2 
-0.4342892397805343 -0.18874958502935305 -0.41016336130626302 -0.51188828122884489 -0.51701607050142651 0.38846169684286669 0.53053101988317075 0.48191265386263576 0.42869059984833896 1:7 2:7 3:1 4:2 5:1 6:2 7:3 8:3 9:3 10:3 11:3 12:2 14:1 15:5 16:2 17:2 18:4 19:9 20:7 21:7 
-0.28596823141752431 -0.12537406197024131 -0.25105625246695029 -0.41300132073265161 -0.34293092053997631 0.25744526845022958 0.23988992791802521 0.32061224167963859 0.3025734703763972 1:9 2:9 3:1 4:2 5:4 6:7 7:6 8:3 9:3 10:3 11:5 12:7 13:2 14:3 15:7 16:5 17:7 18:7 19:9 20:9 21:9 22:1 
-0.21772191107016686 -0.095612512881379133 -0.17248907425104965 -0.22613519714186731 -0.26016305985243571 0.19437238721641181 0.17556565431180407 0.23500785948942862 0.21053553441270234 1:8 2:8 3:2 4:1 5:6 6:7 7:4 8:4 9:2 10:5 11:5 12:7 14:8 15:5 16:5 17:7 18:9 19:9 20:9 21:7 
-0.10383716801027432 -0.043626071939994869 -0.071473450785575807 -0.097851762836867223 -0.1212267518166186 0.10152279524056823 0.08094048095680445 0.15957498240774259 0.17750550629604045 1:8 2:8 3:3 4:4 5:6 6:7 7:4 8:4 9:2 10:4 11:5 12:7 13:1 14:8 15:7 16:7 17:5 18:9 19:9 20:9 21:7 
-0.12188978933759856 -0.052793131209687802 -0.092921742514302658 -0.11542074693527229 -0.14558876391649411 0.11122880380956934 0.096249393184988347 0.13714036038588998 0.1288692818781092 1:7 2:7 3:1 4:1 5:4 6:7 7:6 8:3 9:3 10:3 11:3 12:7 15:8 16:5 17:6 18:6 19:9 20:9 21:9 
-0.13142433955425728 -0.056712245683320603 -0.1144415937492692 -0.13891157577688029 -0.15515518600136308 0.14372784815912842 0.10251782568726055 0.18303574600441538 0.1261133305981493 1:7 2:8 3:2 4:2 5:4 6:7 7:3 8:5 9:3 10:5 11:7 12:7 14:8 15:8 16:5 17:5 18:8 19:8 20:9 21:5 22:4 
-0.12761981795083971 -0.061295543586748359 -0.13037522274354776 -0.15236674923906526 -0.16866299547727634 0.11869652431745202 0.20603394258141744 0.15120715606873561 0.092701502068307601 1:8 2:8 3:1 4:1 5:4 6:3 7:3 8:2 9:2 10:3 11:4 12:3 14:5 15:3 16:3 17:3 18:7 19:7 20:9 21:5 
-0.17971592446071713 -0.08045865128889422 -0.15010874214402889 -0.17310612786901447 -0.21571781078025634 0.16507084797799221 0.14456745639972471 0.20618816023993083 0.18013520979955447 1:9 2:9 3:2 4:3 5:4 6:7 7:5 8:5 9:5 10:5 11:7 12:9 13:1 14:8 15:8 16:5 17:5 18:9 19:9 20:9 21:8 22:8 
-0.25806819057176206 -0.10887936146913946 -0.28288779261788344 -0.29024787175947858 -0.2982997306679348 0.2168782182669548 0.19516892945270028 0.27410221835019377 0.22661958315854067 1:8 2:8 3:1 4:1 5:4 6:4 7:3 8:2 9:2 10:2 11:6 12:7 14:7 15:4 16:4 17:6 18:6 19:6 20:9 21:6 
-0 -0 -0 -0.048872478694006356 -0 0 0 0 0 1:7 2:7 3:2 4:2 5:4 6:6 7:3 8:3 9:1 10:1 11:3 12:6 14:6 15:7 16:4 17:5 18:7 19:7 20:9 
-0.3243816627467539 -0.13858426805558599 -0.25442667547026027 -0.33842732994889213 -0.38039363353192124 0.35084112353083496 0.25058548734623792 0.36889649076441716 0.39484869469859157 1:8 2:8 3:3 4:3 5:4 6:7 7:5 8:2 9:2 10:2 11:5 12:7 14:8 15:6 16:6 17:7 18:6 19:6 20:10 21:7 
-0.16181659763930845 -0.072301252831594873 -0.15382031507294883 -0.24759441463558093 -0.19886078590796263 0.14691799444760006 0.095805544795614761 0.18423150196593002 0.16102252435164796 1:7 2:7 3:2 4:2 5:2 6:3 7:4 8:1 9:1 10:3 11:3 12:3 14:5 15:5 16:2 17:2 18:7 19:7 20:9 21:1 
-0.50107094636409089 -0.21819469491862328 -0.40956195448548788 -0.46092409639170506 -0.59856503676803929 0.46818843867305909 0.40091624636601397 0.55934501014963089 0.49364324531729348 1:9 2:9 3:2 4:2 5:4 6:7 7:5 8:5 9:6 10:8 11:7 12:7 13:2 14:9 15:9 16:5 17:5 18:9 19:9 20:9 21:7 22:7 
-0.0089610128756201172 -0.010833690405084594 -0 -0 -0.026182365643423036 0.03765145995515002 0.02287699573008212 0.022102939636530459 0.0070874002089633898 1:8 2:8 3:1 4:1 5:4 6:7 7:4 8:2 9:2 10:2 11:7 12:7 14:8 15:6 16:6 17:5 18:6 19:6 20:9 21:7 
-0 -0 -0 -0 -0 0.00388327338903158 0 0 0 1:8 2:7 3:2 4:2 5:4 6:7 7:4 8:3 9:1 10:4 11:5 12:7 14:8 15:8 16:5 17:5 18:8 19:8 20:9 21:3 
-0.12132174918227655 -0.055447310204721698 -0.11834792759565557 -0.018727640387702041 -0.15339806486064866 0.10369709085559485 0.16539979111501443 0.13059436227799354 0.098332844656242924 1:9 2:9 3:2 4:2 5:4 6:5 7:3 8:1 9:1 10:1 11:3 12:5 14:5 15:6 16:4 17:5 18:6 19:6 20:9 21:2 22:2 
-0.037702027691111653 -0.01661330219385624 -0.041702161576323823 -0 -0.043416517136947268 0.033570146802047562 0.0081380309289599828 0.0099875080434658932 0.030648810259866727 1:7 2:7 3:1 4:1 5:4 6:7 7:3 8:3 9:3 10:3 11:3 12:8 15:7 16:5 17:5 18:5 19:9 20:9 21:9 22:1 
-0.17756758700572517 -0.076960030830252324 -0.1413803971531335 -0.12062771059762378 -0.21049903988961471 0.16265885159162335 0.14070029315653335 0.18317626563524525 0.15097414599667944 1:9 2:8 3:1 4:3 5:7 6:7 7:4 8:2 9:2 10:2 11:5 12:7 13:1 14:8 15:5 16:5 17:5 18:8 19:8 20:10 21:7 
-0.11815596062596953 -0.055586491953942191 -0.096895806652516417 -0.10664454628800965 -0.14512898527382362 0.095148104064683575 0.097563703570497456 0.12495314194178517 0.10606155213002216 1:9 2:9 3:3 4:2 5:4 6:9 7:5 8:5 9:5 10:5 11:7 12:7 14:8 15:8 16:5 17:5 18:9 19:9 20:10 21:8 22:8 
-0.004532142658412691 -0.0019483046567079238 -0 -0 -0.0075751273272980984 0.032242908809427331 0 0.0046996880816074695 0.0025622047280445081 1:8 2:8 3:1 4:1 5:4 6:7 7:5 8:2 9:2 10:2 11:5 12:7 14:9 15:5 16:5 17:5 18:6 19:6 20:9 21:7 
-0.32228130865667431 -0.13961921782259373 -0.36830396089842071 -0.49765135295390656 -0.38265082078913903 0.31536766710669989 0.34907160508545798 0.38360049597240281 0.38239111410189319 1:7 2:7 3:2 4:2 5:4 6:5 7:5 8:3 9:3 10:3 11:3 12:6 14:5 15:6 16:5 17:5 18:6 19:6 20:9 21:4 22:4 
-0.24946182515063986 -0.10996921863585996 -0.20844963076692316 -0.26631205779830747 -0.29924098061368715 0.22211759526069016 0.20137026465317046 0.2755794566920407 0.2428293158469037 1:9 2:9 3:2 4:2 5:6 6:7 7:6 8:5 9:5 10:5 11:5 12:6 14:6 15:7 16:5 17:6 18:10 19:10 20:9 21:7 22:7 
-0.30962300442976953 -0.1363222077142634 -0.25869969750637706 -0.38824394771755932 -0.37355379202719341 0.28187720172908393 0.24101842603074386 0.34916106673644826 0.31356191375900105 1:7 2:8 3:1 4:1 5:3 6:7 7:3 8:2 9:2 10:4 11:4 12:3 14:6 15:4 16:4 17:3 18:7 19:7 20:9 21:5 
-0.19062314076861755 -0.08321845892547787 -0.1524667096469379 -0.35347884554282755 -0.22772643069105153 0.17204314534220996 0.15101474004251231 0.21378904413511057 0.19250087665487026 1:7 2:7 3:1 4:1 5:4 6:7 7:6 8:3 9:3 10:3 11:6 12:7 15:7 16:7 17:7 18:7 19:9 20:9 21:9 
-0.79567550764596373 -0.33755108769500786 -0.7629308207122576 -0.83875945315941525 -0.92402379339327423 0.6958723342238633 0.69123925662269714 0.86026316101624611 0.77020922468231123 1:1 2:6 3:2 4:2 5:2 6:3 7:3 8:1 11:3 12:2 14:4 15:4 16:2 17:1 18:5 19:5 20:4 
-0 -0 -0.0068324439127349888 -0 -0 0 0 0 0 1:8 2:7 3:2 4:2 5:4 6:7 7:3 8:2 9:1 10:3 11:3 12:6 13:1 14:6 15:7 16:5 17:5 18:7 19:7 20:9 21:1 
-0.028826903471649391 -0.016690289693596962 -0.0021879575643285439 -0.047504408669145959 -0.047411610884656584 0.0040316523705389911 0.018451787724939214 0.048603844057350708 0.034557513179477826 1:8 2:8 3:1 4:1 5:7 6:7 7:4 8:2 9:2 10:2 11:5 12:7 14:8 15:5 16:5 17:5 18:7 19:7 20:10 21:7 
-0.35776377716167213 -0.15593751061627151 -0.25580950358138227 -0.19934607476653615 -0.43123829811548575 0.32365443226623236 0.1273543385511757 0.39771925784721851 0.35559619954670524 1:7 2:7 3:1 4:1 6:2 7:3 8:3 9:3 10:3 11:3 12:4 15:4 16:2 17:2 18:4 19:9 20:8 21:8 
-0 -0 -0 -0.19533977661106386 -0 0 0 0 0 1:7 2:7 3:2 4:1 5:4 6:7 7:5 8:3 9:3 10:3 11:5 12:7 15:7 16:6 17:7 18:7 19:9 20:9 21:9 
-0.18086148048648418 -0.078344608616430306 -0.14892946688973072 -0.30664851806992144 -0.21758514892651343 0.16239813014508303 0.14313402870093467 0.19313416920505125 0.17013410357887315 1:8 2:8 3:3 4:1 5:6 6:7 7:4 8:4 9:4 10:4 11:5 12:7 14:8 15:6 16:6 17:5 18:10 19:10 20:9 21:7 
-0.20381238076575067 -0.088844651397101723 -0.13778601741804805 -0.10773334539561995 -0.24507690610197849 0.18198358283685015 0.12819405157525277 0.23581293506364839 0.20187555491955408 1:7 2:7 3:1 4:1 5:4 6:6 7:3 8:4 9:3 10:3 11:3 12:5 15:6 16:3 17:5 18:5 19:9 20:9 21:9 22:1 
-0.21480090692951606 -0.092825710976799092 -0.12726273379022093 -0.16308298606940499 -0.25324722882457773 0.19009923623111202 0.16951304656118574 0.23576087565791556 0.21254458234685247 1:7 2:7 3:2 4:3 5:4 6:7 7:3 8:1 9:1 10:1 11:3 12:5 14:6 15:7 16:5 17:5 18:6 19:6 20:9 
-0.35664859065752613 -0.15625010608107437 -0.2905872637085693 -0.54942815122605737 -0.42619548523631751 0.31912153579149027 0.30940597629267153 0.39721339577579046 0.3505265254921881 1:8 2:7 3:2 4:2 5:4 6:7 7:4 8:3 9:3 10:5 11:3 12:6 14:6 15:7 16:5 17:6 18:9 19:9 20:9 21:3 
-0.38955835534707534 -0.17032270026858248 -0.31164465710442524 -0.6091554307480167 -0.467533188109652 0.35274118780381764 0.42655155239618653 0.43444396819280956 0.40087775666296982 1:7 2:7 3:1 4:1 5:2 6:6 7:4 8:3 9:3 10:3 11:3 12:3 15:5 16:5 17:4 18:4 19:9 20:8 21:8 
-0.49093962422906579 -0.21473685663705119 -0.41580210517478672 -0.55955462337280415 -0.58727769929515694 0.44292962438875966 0.38224166964797807 0.54499513500522667 0.48728583947523707 1:7 2:8 3:2 4:2 5:6 6:4 7:3 8:1 9:1 10:1 11:4 12:5 13:1 14:5 15:6 16:3 17:6 18:7 19:7 20:9 
-0.45382818610210679 -0.19768868658115377 -0.71094832800884833 -0.40562322127294348 -0.54110039651815001 0.40907195188779388 0.42255030457149079 0.5029606325566417 0.45061502747393206 1:7 2:6 3:2 4:2 5:2 6:3 7:2 10:1 11:3 12:3 14:5 15:5 16:2 17:1 18:6 19:6 20:6 
-0.50670359984881652 -0.22072954753580112 -0.36966587123579148 -0.49943476529890013 -0.62571994388263463 0.45664816175252626 0.38464623996842756 0.56191355580333047 0.50067089752077487 1:4 2:7 3:1 4:1 6:3 7:3 8:1 9:1 10:1 11:1 12:2 14:4 15:1 16:1 17:1 18:4 19:5 20:9 
-0 -0 -0.02075276916044163 -0.23154492826363651 -0 0 0 0 0 1:7 2:7 3:1 4:1 5:4 6:5 7:3 8:3 9:3 10:3 11:4 12:7 14:1 15:6 16:4 17:5 18:5 19:9 20:9 21:9 
-0.59600361613343278 -0.26099344829438603 -0.4876396138642532 -0.60814859676250632 -0.71365818487766475 0.53419126492929458 0.47766233171549299 0.65329608828779651 0.57488015477470222 1:8 2:8 3:1 4:5 5:6 6:7 7:4 8:4 9:4 10:4 11:5 12:7 14:8 15:6 16:6 17:5 18:11 19:11 20:9 21:7 
-0 -0 -0 -0.10049702884675725 -0 0 0 0 0 1:7 2:7 3:1 4:1 5:4 6:5 7:3 8:3 9:3 10:3 11:3 12:5 15:5 16:3 17:5 18:5 19:9 20:9 21:9 
-0.26615857690522049 -0.11698908508073809 -0.23012815754565105 -0.50453010015623267 -0.31911730159087148 0.24797669863006211 0.20897679542633196 0.3039552453504219 0.27133242578088407 1:7 2:8 3:2 4:2 5:5 6:7 7:3 8:5 9:3 10:1 11:4 12:6 13:1 14:6 15:7 16:5 17:5 18:8 19:8 20:9 21:3 22:1 
-0.2484346829072353 -0.10023820547458276 -0.21585138254833849 -0.21770076615832712 -0.27562638094413955 0.19569584305819776 0.18050648373259795 0.25691423062675517 0.24151162507926197 1:8 2:8 3:1 4:1 5:4 6:7 7:4 8:2 9:2 10:2 11:6 12:8 13:2 14:8 15:5 16:5 17:5 18:6 19:6 20:9 21:7 
-0.14188285438007431 -0.062511436799804809 -0.12745157859499054 -0.12386500526292125 -0.16902637035557921 0.1223101424927512 0.11789016901237925 0.14896282130078742 0.13611392914717005 1:9 2:10 3:2 4:2 5:4 6:7 7:4 8:3 9:3 10:5 11:8 12:7 13:1 14:8 15:8 16:6 17:5 18:8 19:8 20:9 21:6 22:5 
-0.43823050328509666 -0.19110612337382346 -0.37177021925426507 -0.55235170417871937 -0.52524253308681579 0.39432654600783235 0.37609403524835539 0.53416359375711753 0.43761745516594769 1:7 2:7 3:2 4:2 5:4 6:7 7:3 8:3 9:3 10:4 11:3 12:7 15:7 16:7 17:5 18:5 19:9 20:9 21:9 22:1 
-0.32416991839652592 -0.140233450215796 -0.26347917992285608 -0.29970469270267752 -0.38668116808736464 0.30026768485285005 0.25819230058960591 0.37583918370446784 0.34516837167138348 1:9 2:9 3:4 4:2 5:5 6:7 7:6 8:5 9:5 10:6 11:7 12:7 14:8 15:8 16:6 17:7 18:9 19:9 20:11 21:7 22:7 
-0.043083390424551948 -0.019045479171892737 -0.037784310731135022 -0 -0.052622516106652001 0.03885962658340511 0.040957600998705858 0.044292799768498106 0.028025495124326085 1:9 2:9 3:1 4:1 5:4 6:7 7:5 8:3 9:3 10:3 11:5 12:7 13:2 14:2 15:7 16:5 17:7 18:7 19:9 20:9 21:9 
-0.91340913532815626 -0.39783348245434985 -0.74996291389079472 -0.84493297085585306 -1 0.82223695013187648 1 1 1 12:1 19:1 
-0.30013806237846419 -0.13107067125468588 -0.30542223420233178 -0.50606180036615656 -0.35904729345745967 0.27033909954599994 0.46190959682643451 0.33184971756464121 0.29565389370907674 1:7 2:7 3:1 4:1 5:2 6:3 7:3 8:3 9:3 10:3 11:3 12:5 15:4 16:2 17:5 18:5 19:9 20:8 21:8 
-0.066064505830973119 -0.028681829231452224 -0.051778895766600282 -0.08403228747143926 -0.077089161488087685 0.078189473836535059 0.047024368150158195 0.077050157277920917 0.099117865006533731 1:8 2:8 3:2 4:2 5:4 6:9 7:5 8:5 9:3 10:5 11:5 12:6 13:1 14:6 15:7 16:5 17:5 18:8 19:8 20:9 21:7 22:6 
-0 -0 -0.049049575286266071 -0 -0 0 0 0 0 1:8 2:8 3:3 4:3 5:6 6:7 7:4 8:4 9:2 10:4 11:5 12:8 13:1 14:8 15:7 16:7 17:5 18:9 19:9 20:9 21:7 
-0 -0 -0 -0.055605598446227013 -0 0.0037723780477814531 0 0 0 1:8 2:8 3:3 4:3 5:4 6:7 7:4 8:4 9:4 10:4 11:5 12:7 14:8 15:7 16:7 17:5 18:9 19:9 20:9 21:7 
-0.92346481261067226 -0.39603974442006773 -0.74400870612588299 -0.84285120019545978 -1 0.98145685607420874 0.72833835676989511 1 0.95080984753067543 1:3 2:4 3:1 4:1 5:1 6:6 7:9 8:6 9:6 10:3 11:3 12:3 13:4 14:4 15:7 16:3 17:4 18:4 19:5 20:6 21:6 22:3 
-0.36199724175577902 -0.15829883812672471 -0.30717061025883446 -0.3471107485828126 -0.4233532071012247 0.3262563132104177 0.38068144790610975 0.40278750786563799 0.35963928508761006 1:7 2:7 3:1 4:1 6:3 7:3 8:1 9:1 10:1 11:1 12:2 14:4 15:2 16:2 17:2 18:4 19:5 20:9 
-0.39563547464356902 -0.17289220257883858 -0.35479765140067276 -0.35404451992581421 -0.47191691748390585 0.35741926813817049 0.31386352530946987 0.43673780729589629 0.39073905374677387 1:7 2:7 3:2 4:2 5:2 6:3 7:3 8:1 9:1 10:1 11:6 12:6 14:7 15:7 16:4 17:2 18:6 19:6 20:9 
-0.2637949143895888 -0.11080401367904709 -0.17764506909448213 -0.14095435660157402 -0.30412096063964389 0.23046176584841813 0.16594120441875793 0.28092294748553381 0.25485768704170642 1:7 2:8 3:1 4:1 5:2 6:3 7:4 8:1 9:2 10:1 11:4 12:3 14:5 15:3 16:2 17:2 18:6 19:6 20:9 21:4 
-0.1338858991162831 -0.05843967314581576 -0.21318296725515665 -0.19810052243387122 -0.16416162537916801 0.12073498415838954 0.18527465336388285 0.14957926180311246 0.13656296262167011 1:4 2:7 3:2 4:2 5:2 6:3 7:3 8:1 9:1 10:1 11:1 12:2 14:4 15:4 16:2 17:2 18:4 19:5 20:8 
-0 -0 -0.19051581798833966 -0 -0 0 0 0 0 1:7 2:7 3:2 4:2 5:4 6:4 7:3 8:1 9:1 10:1 11:3 12:6 14:5 15:6 16:4 17:5 18:6 19:6 20:9 
-0.40936132231410244 -0.17858237788617856 -0.33086467243335266 -0.36342953086849544 -0.48981750066017465 0.3682211392139611 0.3249475421730843 0.45865192389452852 0.4058594078269801 1:7 2:7 3:1 4:1 5:6 6:7 7:5 8:3 9:3 10:3 11:6 12:9 14:1 15:7 16:5 17:7 18:7 19:9 20:10 21:10 22:2 
-0.02863660630624975 -0.012527055132472951 -0.12327059907364557 -0.0040338028495120314 -0.037370486056093652 0.024130457992605912 0.015331947993467352 0.029157617288280521 0.016457938125439078 1:7 2:8 3:2 4:3 5:4 6:7 7:3 8:3 9:2 10:3 11:3 12:7 14:7 15:7 16:5 17:6 18:8 19:8 20:9 21:2 
-0.059625119880458717 -0.045249785369660581 -0.078376821817348355 -0.089604855214350229 -0.10583726105837356 -0.098340133243327965 0.078077108619751451 0 0.070027193716831596 1:4 2:7 3:4 4:4 5:2 6:8 7:9 8:6 9:6 10:3 11:5 12:7 13:6 14:10 15:9 16:9 17:6 18:5 19:5 20:9 21:6 
-0 -0 -0 -0 -0 -0 0 0 0.14785405432367185 1:4 2:6 3:4 4:3 5:1 6:7 7:9 8:6 9:4 10:4 11:5 12:7 13:5 14:9 15:7 16:7 17:6 18:5 19:5 20:9 21:7 
-0.14006838012564224 -0.081049260456805022 -0.14335857398911889 -0.16041351321110772 -0.19469050514608191 -0.18025761549047131 0.14282189766238101 0.13251034673941986 0.017859026352405962 1:4 2:6 3:4 4:3 5:1 6:8 7:9 8:6 9:7 10:4 11:5 12:7 13:5 14:9 15:9 16:9 17:7 18:5 19:5 20:9 21:6 
-0.27483439999440334 -0.14323813794237017 -0.25288604623131788 -0.28975504581687317 -0.34161265795228957 -0.31540092269606962 0.25047450126838533 0.47962506874224725 0.43226615967488963 1:4 2:6 3:3 4:3 5:1 6:5 7:9 8:8 9:3 10:3 11:5 12:6 13:1 14:9 15:7 16:7 17:5 18:6 19:6 20:9 21:6 
-0.34746292139920593 -0.1376991097159781 -0.24558460114932001 -0.27286156555858337 -0.33098312501865407 -0.31053996368913267 0.24326284494265157 0.53473339840590173 0.2894444714223387 1:4 2:6 3:3 4:4 5:2 6:6 7:9 8:6 9:6 10:3 11:5 12:6 13:6 14:9 15:8 16:8 17:4 18:5 19:5 20:9 21:6 
-0.35313147714794724 -0.17314219525030428 -0.30801784552856842 -0.34456713994497035 -0.41472638679504431 -0.38835961002284125 0.30469395415719053 0.44852144600556709 0.41932590798576841 1:6 2:7 3:5 4:3 5:3 6:8 7:9 8:8 9:8 10:4 11:6 12:7 13:6 14:9 15:11 16:11 17:6 18:7 19:7 20:9 21:8 
-0.42338105065314457 -0.19693087939881032 -0.34779394704894195 -0.39065712276798326 -0.47233625754484676 -0.44130036467141809 0.3456973837513625 0.38700685958884001 0.61009522793647675 1:4 2:4 3:3 4:3 5:1 6:5 7:9 8:5 9:3 10:2 11:5 12:4 13:1 14:9 15:6 16:6 17:4 18:4 19:4 20:8 21:6 
-0.58604881200562697 -0.23290452620305988 -0.41579640023517567 -0.46580217080501807 -0.55718747095614163 -0.55376934682728673 0.41165960109298499 0.65634915695143992 0.75344238734609525 1:5 2:6 3:3 4:3 5:1 6:5 7:7 8:5 9:3 10:2 11:5 12:4 14:9 15:7 16:7 17:3 18:4 19:4 20:8 21:7 
-0.15283559714130479 -0.082497055504012526 -0.14757984966623916 -0.16437984966956037 -0.19815150953382799 -0.18759866318242246 0.14564122195109527 0.073624882000972627 0.15042456735144596 1:6 2:7 3:5 4:2 5:3 6:8 7:10 8:8 9:6 10:7 11:6 12:7 13:6 14:6 15:10 16:8 17:6 18:6 19:8 20:9 21:9 22:7 
-0.37392359346838411 -0.17566117776602733 -0.31940664812364788 -0.35230946817733771 -0.42075490010058342 -0.42406013078160631 0.31076592507145778 0.6525453257695899 0.52047254070394888 1:4 2:6 3:4 4:3 5:2 6:5 7:7 8:5 9:3 10:2 11:5 12:4 14:9 15:7 16:7 17:6 18:4 19:4 20:8 21:5 
-0 -0 -0 -0 -0 -0 0 0.085717940452162203 0 1:4 2:5 3:3 4:3 5:2 6:7 7:8 8:7 9:6 10:5 11:6 12:6 13:4 14:9 15:9 16:7 17:4 18:5 19:5 20:9 21:5 22:5 
-0.58956076646888289 -0.28510351547259616 -0.50739124296101323 -0.56813548904874589 -0.68245988493099474 -0.63915376752935038 0.50205189109537174 0.61460206242056337 0.60063789709742754 1:7 2:9 3:6 4:3 5:4 6:8 7:10 8:9 9:7 10:6 11:8 12:9 13:6 14:12 15:12 16:11 17:6 18:7 19:7 20:9 21:8 22:8 
-0.13885490608148585 -0.04331048951966119 -0.077123370345806547 -0.085897906222519013 -0.10412401403717762 -0.1058429758248861 0.075707932775465642 0.11462959073422781 0.099317838782166018 1:5 2:7 3:3 4:3 5:3 6:7 7:8 8:7 9:6 10:6 11:6 12:6 13:6 14:10 15:10 16:8 17:4 18:5 19:5 20:9 21:5 22:5 
-0 -0 -0 -0 -0 -0 0 0.17626047550429852 0 1:4 2:6 3:4 4:3 5:1 6:6 7:9 8:5 9:4 10:4 11:5 12:7 13:4 14:9 15:7 16:7 17:6 18:5 19:5 20:9 21:6 
-0.11063382312453864 -0.027219939084498983 -0.048515272843430567 -0.05385620539192483 -0.064809775602866035 -0.057827094506912424 0.047770463191268632 0.056966503277929556 0.051432014214928677 1:4 2:5 3:3 4:3 5:3 6:7 7:8 8:7 9:6 10:6 11:7 12:7 13:7 14:9 15:9 16:7 17:5 18:5 19:5 20:9 21:5 22:5 
-0 -0 -0 -0 -0 -0 0 0.06407121435958435 0 1:4 2:6 3:3 4:3 5:1 6:6 7:8 8:6 9:5 10:4 11:5 12:7 13:4 14:9 15:7 16:7 17:5 18:5 19:5 20:9 21:6 22:1 
-0.42233939582054691 -0.20406151625807051 -0.36229544840649663 -0.4057537222119838 -0.48803289147312112 -0.45954037447116663 0.35801969468213285 0.44656507363600573 0.41339170897188671 1:7 2:7 3:5 4:3 5:3 6:7 7:10 8:9 9:6 10:6 11:6 12:9 13:6 14:10 15:10 16:8 17:5 18:6 19:6 20:9 21:9 22:9 
-0 -0.006540594318735376 -0.013577888091769817 -0.015003611756314057 -0.018216083109722177 -0.016316683236747363 0.012393708540794739 0 0 1:5 2:5 3:4 4:3 5:3 6:7 7:10 8:9 9:7 10:6 11:6 12:10 13:7 14:10 15:10 16:9 17:6 18:6 19:6 20:9 21:6 22:6 
-0.074994679038021428 -0 -0 -0 -0 -0 0 0 0.0072503618741706684 1:4 2:6 3:3 4:3 5:3 6:7 7:10 8:7 9:6 10:6 11:6 12:6 13:6 14:9 15:9 16:7 17:4 18:5 19:5 20:9 21:7 22:6 
-0 -0 -0 -0 -0 -0 0 0.0010239777558569904 0 1:4 2:6 3:4 4:3 5:3 6:8 7:9 8:8 9:6 10:4 11:5 12:7 13:5 14:9 15:10 16:10 17:6 18:6 19:6 20:9 21:6 
-0.238512124740445 -0.11691431677757862 -0.2072386642016498 -0.23209505933438024 -0.27954946752166066 -0.26103630710236925 0.20553662547792115 0.46213810092016777 0.24934892035414344 1:6 2:7 3:5 4:3 5:6 6:8 7:9 8:8 9:7 10:7 11:5 12:8 13:6 14:10 15:12 16:12 17:6 18:7 19:7 20:9 21:8 22:2 
-0.26175765587667255 -0.13434767479402249 -0.23988591717555485 -0.26896447110234828 -0.3228969779917884 -0.30716144367189807 0.23753690300449593 0.29739316374833236 0.28120236979431251 1:5 2:5 3:4 4:3 5:3 6:7 7:10 8:9 9:6 10:8 11:8 12:7 13:6 14:9 15:9 16:8 17:6 18:8 19:8 20:9 21:6 22:6 
-0 -0 -0 -0 -0 -0 0 0.05180509878155095 0 1:4 2:6 3:3 4:3 5:1 6:5 7:9 8:5 9:3 10:3 11:5 12:6 13:1 14:9 15:7 16:7 17:4 18:5 19:5 20:9 21:6 
-0.36232800999411552 -0.16705801112185684 -0.29775474223651349 -0.33339834308798028 -0.40241071099504233 -0.37852196586877856 0.29473372107061646 0.60701961897985357 0.35233176483265044 1:4 2:5 3:3 4:3 5:2 6:7 7:6 8:7 9:6 10:5 11:6 12:2 13:4 14:8 15:8 16:7 17:4 18:4 19:4 20:9 21:4 22:4 
-0.66779802779420483 -0.31523779622315501 -0.56117652009530228 -0.62828530438384422 -0.75629765490515544 -0.72823455533759507 0.55434809407430607 0.66002308276437349 0.65380867619142147 1:4 2:5 3:2 4:1 5:3 6:8 7:9 8:8 9:6 10:6 11:5 12:3 13:6 14:6 15:9 16:5 17:4 18:4 19:7 20:8 21:7 22:4 
-0.28499972681534497 -0.11458781726046055 -0.20311057411843195 -0.22737350289865954 -0.27372034699083625 -0.25654103800737238 0.20207080049445705 0.34724147364671554 0.28432018254093089 1:5 2:5 3:6 4:6 5:4 6:7 7:10 8:9 9:7 10:6 11:9 12:9 13:7 14:10 15:10 16:10 17:6 18:7 19:7 20:10 21:8 22:8 
-0.11328724500605536 -0.055180817559546493 -0.09740918956647758 -0.10913201754136258 -0.13143724458373943 -0.12334064064924137 0.096766723385656575 0.13840290564061816 0.11598692796894285 1:5 2:7 3:6 4:3 5:5 6:8 7:10 8:9 9:9 10:6 11:8 12:9 13:6 14:10 15:10 16:11 17:7 18:8 19:8 20:9 21:8 22:8 
-0 -0 -0 -0 -0 -0 0 0.16564287156715929 0 1:5 2:5 3:4 4:3 5:3 6:7 7:8 8:7 9:6 10:6 11:7 12:7 13:6 14:9 15:9 16:8 17:7 18:5 19:5 20:9 21:5 22:5 
-0.38440488756470131 -0.18389708683820538 -0.32706290062323767 -0.36571255405619868 -0.43968819957199767 -0.41465453396336571 0.32372882306401929 0.44250793689023465 0.35090826763241828 1:7 2:7 3:3 4:2 5:3 6:8 7:9 8:8 9:6 10:7 11:6 12:7 13:6 14:6 15:12 16:8 17:5 18:5 19:9 20:9 21:9 22:4 
-0.45639649440126512 -0.21806352184399996 -0.39619973796549207 -0.45421285568772707 -0.52010377412970754 -0.55467228846322181 0.38308169558994176 0.60428981885011257 0.35693843114132068 1:4 2:6 3:3 4:3 5:1 6:6 7:7 8:5 9:4 10:3 11:8 12:7 13:2 14:9 15:7 16:7 17:6 18:6 19:6 20:9 21:5 
-0.30263357169178012 -0.13370047627815759 -0.23837760826785198 -0.2671259305002735 -0.3206755344594428 -0.3036160932351738 0.2352841219416914 0.71285115724816084 0.5791817387575704 1:6 2:7 3:4 4:4 5:5 6:8 7:9 8:8 9:6 10:6 11:6 12:8 13:6 14:6 15:11 16:8 17:7 18:7 19:7 20:10 21:10 22:5 
-0.37925329317060713 -0.18580286376752617 -0.33127250569581385 -0.36882893941329742 -0.44513244044654776 -0.41292546675984415 0.3273221556700151 0.59309323733983099 0.42274961709124831 1:4 2:6 3:4 4:4 5:1 6:6 7:9 8:9 9:4 10:5 11:5 12:6 13:4 14:9 15:8 16:8 17:7 18:6 19:6 20:9 21:6 
-0 -0.00053545663795661171 -0.0022747338399247211 -0.0034379513366666939 -0.00297312285535084 -0.0026029210225972446 0.0028774888139160857 0 0 1:4 2:5 3:2 4:2 5:3 6:8 7:9 8:8 9:6 10:7 11:6 12:7 13:6 14:6 15:10 16:8 17:5 18:5 19:8 20:8 21:7 22:4 
-0.42506716043888187 -0.20291396287527097 -0.36123933359366672 -0.40456613320392032 -0.48623575524875889 -0.45702735491806179 0.35748451105718937 0.42187398172127866 0.37396770234316362 1:6 2:6 3:4 4:3 5:4 6:8 7:9 8:6 9:6 10:6 11:5 12:7 13:6 14:9 15:12 16:12 17:6 18:5 19:5 20:9 21:6 
-0.39002695666589599 -0.18855164374371428 -0.33528624047882227 -0.37543642289789392 -0.45140790219822169 -0.42222906454881148 0.33223572355246661 0.49240346972501542 0.39342890526401936 1:5 2:5 3:5 4:4 5:4 6:8 7:10 8:9 9:9 10:6 11:8 12:9 13:6 14:10 15:10 16:11 17:6 18:9 19:8 20:9 21:7 22:6 
-0.31729791821621794 -0.15418909383322582 -0.27006237038516168 -0.30408155606470194 -0.37058313492749267 -0.33593416792373348 0.27150729414740649 0.45662688240124266 0.53248780278076002 1:4 2:6 3:4 4:4 5:1 6:7 7:8 8:6 9:3 10:3 11:7 12:7 13:1 14:9 15:8 16:8 17:7 18:6 19:6 20:9 21:6 
-0.11417192272725217 -0.057094495464623946 -0.10045045545928591 -0.11343448426199434 -0.13617014521648338 -0.23140560950032898 0.10129516468957515 0.14426646128085996 0.14531025674598128 1:4 2:5 3:2 4:2 5:3 6:7 7:9 8:7 9:6 10:6 11:5 12:3 13:6 14:6 15:9 16:6 17:4 18:4 19:7 20:7 21:6 22:4 
-0.49582542806820989 -0.23699875170548526 -0.42120973069088397 -0.47189760723597768 -0.56612804983636233 -0.53055734070202787 0.41618764292617139 0.84310600595264396 0.57755384540219334 1:6 2:7 3:5 4:6 5:4 6:8 7:9 8:6 9:6 10:7 11:7 12:7 13:6 14:9 15:12 16:12 17:6 18:7 19:7 20:10 21:8 22:1 
-0.14211502473786347 -0.070650972277589597 -0.12413928407991598 -0.13965113834618614 -0.16748228065185217 -0.15714473792496089 0.12403279739760474 0.18258973619025978 0.14112846773711579 1:5 2:5 3:4 4:3 5:3 6:7 7:10 8:7 9:6 10:6 11:6 12:9 13:6 14:10 15:10 16:8 17:6 18:5 19:5 20:9 21:6 22:6 
-0.040398618734379811 -0.011727838607724082 -0.020264954827372329 -0.022310543723865553 -0.026677285083089572 -0.023840347280268293 0.019874382264057869 0.01697179912585714 0.019864668609476506 1:5 2:7 3:6 4:5 5:3 6:7 7:10 8:9 9:6 10:7 11:6 12:9 13:6 14:11 15:11 16:9 17:6 18:6 19:6 20:9 21:8 22:8 
-0.59671051939042885 -0.28550862318363346 -0.50716099325142194 -0.56816056035129803 -0.68158507086512188 -0.66148962119751442 0.50176358762002515 0.68332802946408533 0.6041511877340745 1:2 2:5 3:3 4:3 5:2 6:7 7:8 8:6 9:5 10:5 11:5 12:1 13:2 14:9 15:9 16:5 17:3 18:4 19:4 20:8 21:4 22:4 
-0.37615913178749238 -0.17683718252254732 -0.31465131665484108 -0.35284889682501591 -0.42410595061517042 -0.3973564974914397 0.31119171883068653 0.46417576592924686 0.43561855442811387 1:5 2:7 3:6 4:5 5:5 6:8 7:10 8:9 9:7 10:7 11:8 12:9 13:6 14:10 15:10 16:12 17:7 18:7 19:7 20:9 21:9 22:9 
-0.85258284828657482 -0.36188487851106954 -0.64375045403551123 -0.72091448099139943 -0.8698894163519012 -0.81856015512415436 0.63697085115861929 0.84661160618117781 0.75610803299158846 1:1 2:4 3:3 4:3 5:2 6:7 7:7 8:4 9:6 10:6 11:6 12:2 13:5 14:8 15:8 16:5 17:2 18:3 19:3 20:9 21:4 22:4 
-0.2446439369614177 -0.12180165998078828 -0.21598175542074269 -0.2409768306585523 -0.29155149927153934 -0.23916630981760995 0.21326234693863597 0.23977509041526909 0.23661924883450125 1:4 2:5 3:2 4:2 5:3 6:8 7:9 8:8 9:7 10:6 11:6 12:5 13:6 14:6 15:10 16:9 17:4 18:4 19:7 20:8 21:7 22:4 
-0.0130714898789613 -0.024260472706304131 -0.042936653776910055 -0.047978745305529466 -0.057055771703867303 -0.052852720918905652 0.041251240750824404 0.016775860017748088 0 1:5 2:5 3:6 4:5 5:4 6:8 7:10 8:9 9:7 10:7 11:9 12:9 13:6 14:10 15:10 16:11 17:8 18:7 19:7 20:9 21:8 22:8 
