svm_type c_svc
kernel_type rbf
gamma 0.055555555555555552
nr_class 2
total_sv 47
rho -0.11141960406855513
label 0 1
nr_sv 29 18
SV
0.061647380369572416 1:2 2:1 3:3 4:3 5:9 6:9 7:3 8:1 9:2 10:2 11:2 12:2 13:5 14:6 15:9 16:3 17:2 18:2 
0.21799942470521394 1:3 2:1 3:1 4:1 5:9 6:9 7:1 8:1 9:1 10:2 11:3 12:2 13:2 14:2 15:9 16:3 17:2 18:2 
0.058396137201979975 2:1 3:1 4:1 5:4 6:8 11:1 12:1 13:2 14:2 15:5 16:2 17:1 18:1 
0.0086175133897401415 2:1 3:2 4:1 5:9 6:9 7:1 8:1 9:2 10:2 11:2 12:2 13:2 14:2 15:8 16:4 17:2 18:2 
0.21439114016858432 3:1 4:1 5:7 6:8 7:1 11:1 12:2 13:2 14:2 15:5 16:2 17:2 18:2 
0.33566710747399175 3:1 4:1 5:2 6:8 7:1 8:1 11:1 12:1 13:2 14:2 15:5 16:1 17:1 18:1 
0.023635046809450794 2:1 3:1 4:1 5:9 6:9 7:1 8:4 9:3 10:2 11:2 12:2 13:4 14:4 15:8 16:3 17:2 18:2 
0.27498629496377608 2:1 3:1 4:3 5:6 6:8 7:1 8:1 11:1 12:2 13:3 14:3 15:7 16:1 17:2 18:2 
0.60755991074144378 1:3 2:3 3:1 4:1 5:9 6:9 7:3 8:3 9:4 10:2 11:2 12:2 13:7 14:7 15:9 16:3 17:2 18:2 
0.30302798406118775 1:3 2:3 3:3 4:3 5:9 6:9 7:1 8:1 9:1 10:2 11:2 12:2 13:6 14:6 15:9 16:2 17:2 18:2 
0.28378245072075964 2:1 3:1 4:2 5:9 6:9 7:2 8:3 9:3 10:4 11:4 12:3 13:2 14:2 15:8 16:3 17:2 18:2 
0.02664923187416629 2:1 3:1 4:4 5:9 6:9 7:1 8:1 9:1 10:2 11:2 12:3 13:2 14:2 15:8 16:2 17:3 18:3 
0.30116872323959393 2:1 3:1 4:1 5:9 6:9 7:2 8:4 9:1 10:2 11:3 12:4 13:2 14:2 15:8 16:3 17:2 18:2 
0.32691834339882242 2:1 5:9 6:9 7:1 8:1 10:2 11:2 12:2 13:2 14:2 15:5 16:2 17:2 18:2 
0.58479505113380603 2:1 3:3 4:7 5:9 6:9 7:1 8:1 9:1 10:4 11:4 12:2 13:3 14:3 15:8 16:2 17:3 18:3 
0.27534390860527463 2:1 3:4 4:3 5:9 6:9 7:1 8:1 9:2 10:2 11:2 12:3 13:4 14:5 15:8 16:2 17:2 18:2 
0.27721770685992819 2:1 5:5 6:9 7:1 8:1 10:2 11:2 12:1 13:2 14:2 15:5 16:1 17:1 18:1 
0.46888738778610911 2:1 3:1 4:1 5:2 6:8 7:1 8:1 11:1 12:2 13:1 14:1 15:7 16:1 17:1 18:1 
0.066598929918790295 2:1 3:1 4:1 5:9 6:9 7:3 8:1 10:2 11:2 12:2 13:2 14:2 15:7 16:2 17:3 18:3 
0.083832221763941311 2:1 3:1 4:1 5:9 6:9 7:4 8:1 9:1 10:2 11:2 12:3 13:3 14:3 15:8 16:2 17:2 18:2 
0.41095722743956142 1:2 2:3 3:1 4:5 5:9 6:9 7:1 8:1 9:1 10:5 11:5 12:2 13:3 14:3 15:8 16:2 17:2 18:2 
1 4:7 5:7 10:2 11:2 12:2 13:2 14:2 15:2 16:2 
0.021134138750156305 2:1 5:7 6:8 7:1 8:1 11:1 12:2 13:2 14:2 15:5 16:2 17:2 18:2 
0.32907156327008014 1:4 2:3 3:1 4:1 5:9 6:9 7:1 8:2 9:1 10:2 11:2 12:2 13:4 14:4 15:9 16:4 17:2 18:2 
0.028739136704900452 1:1 2:1 3:1 4:5 5:9 6:9 7:1 8:1 9:1 10:2 11:2 12:2 13:3 14:3 15:9 16:2 17:3 18:3 
0.32715204513368379 2:1 3:1 4:1 5:9 6:9 7:3 8:3 9:4 10:2 11:2 12:2 13:5 14:5 15:8 16:3 17:2 18:2 
1 6:1 17:1 
0.18914785133365733 1:3 2:3 3:1 4:5 5:9 6:9 7:1 8:1 9:1 10:3 11:3 12:2 13:5 14:5 15:9 16:2 17:2 18:2 
0.0082736793182342453 2:1 3:1 4:1 5:9 6:9 7:4 8:1 9:1 10:2 11:2 12:2 13:3 14:3 15:8 16:3 17:2 18:2 
-0.64735074746611132 4:6 5:4 11:1 12:2 13:2 14:2 15:2 16:1 
-1 
-0.26979135895098461 4:4 5:6 6:1 10:1 11:1 12:2 13:2 14:2 15:1 16:2 
-0.37597057804218376 4:7 5:7 6:4 10:3 11:3 12:2 13:3 14:3 15:2 16:2 
-0.61514967948153221 4:4 5:7 10:2 11:2 12:2 13:1 14:1 15:2 16:1 
-0.52129587043578773 1:2 2:1 4:7 5:7 10:2 11:2 12:2 13:2 14:2 15:3 16:4 
-0.32851479400509964 3:3 4:7 5:8 6:3 10:2 11:2 12:2 13:4 14:4 15:3 16:2 17:2 
-0.25466590536329264 1:2 4:9 5:9 6:1 10:3 11:3 12:2 13:2 14:2 15:3 16:2 17:2 18:2 
-0.066348413456497057 4:9 5:9 6:3 10:2 11:2 12:2 13:3 14:3 15:3 16:2 17:2 18:2 
-0.30594054105967422 3:3 4:9 5:9 6:2 10:3 11:3 12:2 13:2 14:2 15:2 16:3 17:3 18:3 
-0.21323148230808123 1:1 2:2 4:7 5:7 10:2 11:3 12:3 13:3 14:2 15:2 16:2 
-0.11823708070595255 4:7 5:7 6:4 10:2 11:2 12:2 13:3 14:3 15:3 16:2 17:1 
-0.6382627756360415 4:7 5:7 6:1 8:2 9:2 10:4 11:4 12:3 13:2 14:2 15:2 16:2 
-0.87658303374231228 3:8 4:9 5:9 10:3 11:3 12:2 13:3 14:3 15:3 16:3 17:3 18:3 
-0.30276129604759722 3:2 4:9 5:9 6:3 10:2 11:2 12:2 13:4 14:4 15:2 16:3 17:2 18:2 
-0.44142345430246421 4:9 5:9 10:2 11:2 12:2 13:2 14:2 15:2 16:2 17:2 18:2 
-0.70730780406976912 3:6 4:7 5:7 10:3 11:3 12:2 13:3 14:3 15:3 16:3 
-0.4327627220630253 4:8 5:5 10:2 11:2 12:2 13:1 14:1 15:2 16:2 17:1 
